{"biases":[[-12.2396,31.6419,-10.8806,-37.8159,-18.571,-2.4391,-5.4746,-26.9377,1.2957,4.4556,-20.4837,-8.0651,13.9978,-0.4415,22.2209,-2.5224],[-4.7581,-26.6388,-12.4129,-0.2253,-10.6165,-11.6278,6.3319,-26.7377,12.7408,-2.1798,-13.4702,4.19,-3.2971,-0.1798,-8.8106,-6.0072],[-15.6314,0.4158,-4.2099,-2.7736,-12.0455,-1.4187,-18.9437,-11.7473,-11.7221,-9.4609]],"weights":[[[0.195,-0.1125,0.0869,0.0889,-0.1965,-0.1584,0.1847,0.139,-0.1981,-0.0394,0.146,0.0588,1.2369,2.5427,0.1577,-0.168,0.0311,-0.1165,-0.1644,0.0513,0.1119,0.0988,-0.133,-0.1818,-0.1904,-0.1606,-0.1478,-0.0515,0.1651,-0.0875,-0.0169,-0.1978,0.0022,-0.091,-0.1235,0.1631,0.058,0.0112,-0.1294,0.0554,1.6839,1.6144,-0.1158,0.0274,-0.1956,-0.4659,0.0143,0.0712,0.012,1.205,0.6885,-0.03,-0.1171,0.1871,-0.184,-0.0482,0.1097,-0.0803,-0.1579,0.108,-0.1743,-0.0443,-0.0069,-0.0874,0.0321,-0.5901,-0.6841,0.0926,1.7401,1.607,-0.3842,0.8694,0.6619,-1.5441,-1.807,0.5004,1.5675,1.3839,0.7192,-0.4973,-0.015,0.0674,0.1462,0.053,0.0092,-0.0474,0.1892,0.0091,-0.2492,0.0173,0.285,-0.2647,-0.7714,-1.4865,0.1511,5.4565,7.1816,6.2471,0.4015,-2.2683,-5.7165,-4.2512,-1.4806,0.8684,1.3865,2.206,2.5306,0.9057,1.1691,0.1987,0.0011,0.1028,0.0584,0.1886,0.0673,0.0907,0.2165,-0.6658,-1.6799,-1.6068,1.7349,3.3661,-1.3149,-2.8632,-0.8082,-1.1278,-3.0701,-6.5093,-5.7221,-3.9465,-4.755,-2.4931,-1.3076,2.0354,4.1626,4.9535,3.55,0.3983,0.0359,-0.1592,-0.0032,0.054,-0.008,1.4222,2.4028,0.0218,-1.7792,-0.9106,5.5265,3.3993,0.422,3.3453,-0.0114,-0.7385,-4.2251,-7.4705,-0.9985,-2.264,-11.3329,-7.8828,-4.7821,-1.5701,3.8629,2.3374,0.6015,-1.6379,-1.2214,-0.0073,0.1491,0.0893,-0.1371,2.3227,1.7452,-2.5564,-1.7057,6.6075,4.2562,-1.6119,-1.1615,1.067,0.6319,-3.2091,-5.2269,-5.6614,-0.5576,-0.4373,-5.6723,-4.2483,0.5659,-1.0034,-2.9242,1.9565,-0.579,-2.9738,-1.8284,-0.0328,0.192,0.4485,0.1898,0.4561,-1.1303,-1.4908,4.7545,7.8309,0.7793,-4.3998,-1.2114,1.2578,-4.8789,0.4928,-5.9497,-7.61,0.5221,0.4521,-2.0522,2.4411,3.0531,-6.5965,-5.9338,0.2872,3.2228,-3.5043,-1.1884,-0.0718,0.0775,0.7211,0.4888,0.3929,1.4511,0.7572,-0.7279,3.4454,9.4617,0.0833,3.7953,-2.8376,-2.9912,-5.8691,1.4132,-10.2748,-13.4765,-0.3588,-2.7079,-6.0769,-0.0604,-3.3486,-4.6578,-2.9878,-3.8334,-5.5718,-2.9203,-0.4403,-0.0385,0.4124,0.8572,-0.2809,2.3525,7.4059,-4.7228,4.4397,-1.227,0.7527,-1.5605,-4.0387,6.8236,0.5728,-1.0154,-0.018,-0.3534,10.5158,-0.0784,0.1539,2.5294,0.3524,-2.1733,-2.83,-10.8312,-4.5782,-1.8478,-0.107,0.161,0.1447,0.571,-1.6521,0.5149,10.5183,-1.3673,-1.8388,-3.2125,3.5233,2.0144,-5.8594,4.1679,-1.7551,-1.1013,-5.5923,6.2202,3.7067,-6.1337,-4.3282,0.901,1.3553,-3.1817,-1.3248,-9.7349,-3.8629,-2.4751,-0.1254,-0.086,0.4168,2.5036,1.0503,3.0406,5.8832,2.5754,2.6919,-6.9223,-1.9213,4.3527,7.2156,0.828,-8.8516,-13.2854,-3.9049,-1.029,-0.9417,6.635,4.2858,-0.7617,-2.0097,-0.0398,-3.6676,-3.8774,-1.9475,-1.237,0.0053,0.1914,0.6138,3.4521,1.7369,4.744,3.2868,-1.0233,-7.572,1.0089,-4.7586,1.3961,4.1961,2.9505,-22.2836,-9.2158,-3.4969,3.5094,-0.75,5.1536,4.9027,6.6363,-0.7071,6.7435,-0.3101,-2.9376,-4.4759,-3.3433,0.1307,0.1876,0.7319,2.5085,-0.4435,-1.5978,4.824,3.7426,4.6854,4.7408,-4.2694,1.3665,-5.804,-10.052,-18.4452,-5.4523,-3.2478,2.1242,8.4199,2.9312,3.6075,10.4795,4.7468,8.0519,-1.2016,-8.0256,-6.2756,-2.4395,-0.2518,0.0666,0.5818,1.5761,-1.2752,-1.2542,8.3421,1.5313,6.3663,4.7506,0.0471,3.8809,0.473,-16.9292,-24.8668,-2.3075,0.5445,4.682,-0.0771,2.2046,6.8832,5.2908,0.148,7.166,3.0496,-2.6482,-3.1673,-0.4814,0.1063,0.0379,0.0566,0.4819,-2.1591,0.6204,-1.5253,-1.5681,2.2187,-0.6487,3.9682,-1.7068,4.9325,-15.0341,-14.7174,3.4576,6.9609,3.007,6.8679,9.104,8.5024,5.152,2.6715,9.3231,-1.0622,-5.9606,-5.5274,-1.477,-0.0917,0.0961,-0.0436,-1.1707,-2.3723,-1.3192,-7.0573,-2.969,6.5876,3.8534,9.6307,2.3518,-4.6585,-15.3573,-2.1641,3.8461,4.6732,4.7423,9.2534,7.453,-1.6558,9.9586,1.7047,-0.4697,-4.433,-7.0592,-9.2936,-4.351,-0.3579,0.1514,-0.0157,-1.0411,-2.7953,-5.9999,-0.7607,-0.8802,5.4518,-1.9787,-2.1197,-5.6952,-8.4374,-5.3858,2.4475,13.0358,10.6628,7.3128,4.6347,2.3202,-4.1295,9.5806,1.0619,-1.1946,-2.1314,-5.0807,-5.4649,-2.2669,-0.5464,-0.1352,-0.053,-0.1751,-2.0912,-9.2603,-0.5286,-4.2968,2.8682,0.7062,-8.5149,-11.987,0.5364,3.1581,4.2477,6.7838,-3.7294,-1.2392,1.4876,7.2262,6.251,3.2308,-6.0169,-8.0933,-4.1629,-7.7353,-2.0752,0.0334,-0.0777,-0.0661,-0.131,-0.0282,-0.2551,-2.7711,-5.5998,-6.5523,-2.7812,-8.8728,-15.0029,-5.1995,4.7158,7.0971,13.9516,4.6574,2.3844,-1.371,4.3469,-6.2042,-0.872,-7.4368,-8.3509,-7.6999,-8.6891,-6.4597,-2.2417,-0.884,0.1164,-0.1959,0.0604,-0.1947,-0.8838,-2.986,-4.1658,-9.7734,-10.8442,-12.053,-4.543,-1.9139,-0.1542,7.4005,1.3646,2.3317,11.255,4.2201,0.7207,-7.0584,-3.6133,-11.2699,-3.5104,-6.9584,-5.6748,-3.285,-0.8663,-0.2803,-0.1432,-0.179,0.1366,-1.0468,-2.5472,-3.8835,-5.9146,-7.7954,-11.0021,-5.3409,-6.7815,-3.5532,6.6563,-0.6373,-1.4281,3.875,1.2211,-1.4211,3.9011,-0.72,-5.4713,-8.7206,0.534,3.3669,1.4557,-0.3551,-0.154,0.0992,0.1281,0.0639,-0.1976,-0.3504,-2.1921,-4.4714,-6.3542,-6.3707,-0.7469,-1.7947,-10.5203,-6.8975,-5.7508,2.8731,-1.2765,1.947,-7.303,-1.4994,-0.7045,1.3742,0.2219,-2.5038,1.4019,0.3893,-1.8431,0.8066,0.4919,-0.0778,0.138,-0.0288,0.0862,-0.8362,-1.4374,-4.7128,-5.0687,1.5824,3.3975,-4.5636,-0.9125,0.7498,-1.3083,-5.898,-4.5293,1.4251,0.733,-7.9701,2.3019,4.3626,3.8044,1.1222,3.6266,-2.4437,-0.612,-1.9399,-0.2747,0.0956,0.0564,-0.0095,-0.1279,-0.8997,-1.0806,-2.9066,-1.1558,3.7159,1.2673,-0.2102,3.9843,0.6985,1.6243,2.8418,-6.8912,1.4424,4.4028,1.226,-2.5693,-2.0562,2.2246,2.2095,1.7241,-0.1524,-1.3941,0.2127,-0.0882,-0.0709,0.047,0.0813,-0.0224,-0.1296,-0.0513,-0.3206,-3.0607,2.678,4.7725,6.5999,2.6341,-10.8045,-1.7721,-2.394,2.664,-1.1721,-0.5002,-2.7672,-0.8709,3.6793,-2.1369,-1.1692,2.0395,0.3969,-0.7589,-0.2588,0.1632,-0.032,0.143,0.0247,-0.089,0.1522,-0.1844,-1.2765,-2.8105,2.1652,4.0123,3.7995,-1.8437,-1.1726,0.2052,-1.7254,2.091,0.1028,0.2634,0.1949,4.5621,2.5979,0.6881,-0.4059,1.2205,1.1006,0.1197,-0.1217,-0.0178,0.0702,-0.1654,0.0973,0.0421,0.0446,-0.0868,-0.0714,0.0937,0.0554,0.1885,-0.2037,0.5672,0.9906,-0.6293,-0.6813,4.9816,4.5304,-0.6496,-0.3901,0.351,-0.2962,-0.5148,-0.3399,0.8798,1.4312,0.2958,-0.0436,-0.1969,0.0371,0.167],[0.0081,-0.1644,-0.0247,-0.1404,0.0208,-0.195,-0.0537,0.0028,-0.1803,-0.1548,0.1558,0.0525,0.0365,-0.0323,-0.0569,0.0087,0.0355,0.0034,-0.1264,-0.0278,0.1047,-0.1996,-0.0799,-0.1349,0.0171,-0.1195,-0.1102,0.1701,-0.0755,-0.1148,0.0206,0.1166,-0.1465,0.1118,0.0333,-0.0479,0.1308,0.2675,1.8199,2.2831,-0.7627,-0.3506,-0.2339,-0.0523,-0.0252,0.1358,-0.1545,0.1875,0.3354,0.6197,0.3528,0.0314,0.0491,-0.0566,0.0927,0.199,0.148,0.0521,-0.1136,-0.1593,0.1372,0.0816,0.16,0.071,-0.6884,-2.2034,1.9453,2.3982,-0.424,-0.5127,-0.2836,1.1201,1.3836,1.1522,0.4744,1.1544,1.2921,0.9223,0.8201,0.3289,-0.121,-0.0058,0.0526,-0.0152,-0.107,-0.0595,0.089,-0.0636,0.0504,0.2007,0.2671,0.5321,1.0295,1.6233,4.7194,2.8929,-0.9549,-2.3125,-1.9442,-1.8282,1.5977,1.368,0.1682,-3.3753,-3.0816,6.0623,7.7283,2.3305,0.3966,-0.1418,-0.0051,-0.0734,-0.1108,-0.0851,-0.0823,0.0204,0.0111,-0.3082,-0.5519,-0.6384,1.4725,0.4071,-0.4774,-3.3252,-0.7342,-3.1743,-0.3764,-4.7,-5.7084,-3.6709,-8.8565,-3.9866,-7.2625,0.548,0.8241,2.5765,1.8504,1.7919,-0.0552,-0.1906,0.0577,0.0274,-0.0073,-0.1846,-0.2598,-0.3844,-1.6104,-0.8125,1.197,0.0559,-4.5975,1.6308,1.3358,-5.9495,2.4361,-5.4417,-2.9471,-2.8992,-3.7358,-7.1235,2.5958,0.9838,3.8863,6.3153,2.9071,3.8973,0.1265,0.0117,0.1021,0.0345,-0.0941,-0.2828,-0.4516,-1.4581,-0.6438,2.0728,8.3328,9.7719,-0.5786,3.6536,6.5435,4.7188,0.0914,1.524,-7.3146,-1.8562,-8.0851,-2.9846,2.2826,-3.1541,-1.0501,0.717,2.7429,1.4777,1.2327,0.2386,0.0964,-0.0448,0.0814,-1.0669,-0.0982,-1.1084,-0.8374,1.1805,6.8503,3.8153,3.2546,4.1421,-1.3238,-0.5373,2.1775,-0.8251,-0.9191,-5.8455,-7.3573,-11.9249,-3.58,-2.7897,-1.952,2.445,2.8298,4.7581,3.4536,-0.0357,0.0786,-0.0805,0.1403,-1.5015,-0.6118,0.192,2.3663,2.5731,4.283,8.9652,-4.4492,-0.3124,0.5281,3.2882,0.8533,-0.9796,-4.8657,-7.0521,-7.7049,1.0873,-3.4794,0.5509,-0.2707,1.903,10.3906,10.1428,2.605,-0.1324,-0.1942,0.047,0.1618,-1.0378,0.044,-0.4839,6.7693,10.1638,3.4294,8.6708,3.2495,9.8601,3.9449,4.2113,2.0153,4.4243,-3.4147,-12.0478,-10.7747,-6.0043,-9.6108,4.0845,-2.283,-0.2992,2.5759,15.2335,2.2217,0.0392,0.0943,-0.0097,-0.0563,-0.2011,0.8328,0.5307,8.919,7.758,3.8527,2.5445,5.7038,5.6923,6.788,5.1725,6.5351,6.2895,0.3477,-17.0949,-13.1781,-12.1493,-9.6059,-3.7157,-1.5835,-4.4388,1.7416,10.5838,3.336,-0.0924,-0.0906,-0.0721,0.3903,-0.1673,2.3444,3.4508,0.2542,6.2556,2.6139,4.9878,4.5258,4.3126,10.9419,8.6126,12.4615,15.5985,6.9389,-4.405,-9.4267,-3.049,-3.4264,-11.5854,-6.8183,-8.6839,-4.2428,7.3159,1.1468,-0.1026,-0.1694,0.0155,0.4325,-0.0361,1.3346,0.9201,1.4631,7.8805,3.1363,6.1538,1.3934,4.3767,4.7123,-3.2205,8.1452,9.8703,1.8051,-2.1704,1.6266,3.5285,-8.8494,-7.016,-7.3679,-6.7304,-15.0867,-3.0172,0.1816,-0.072,-0.0776,0.1927,0.3503,-0.6835,-2.3486,-4.1821,3.9535,-0.3031,6.9123,1.8314,1.6115,8.9409,3.5445,10.4019,9.8188,12.7282,0.7894,0.3685,7.5789,-1.0165,4.1303,2.6591,-5.6426,-2.9627,-7.4796,-2.7948,-0.0264,-0.1236,0.035,-0.0733,0.2477,0.5262,-4.0789,-3.1606,-7.8255,-10.3373,0.8779,-3.3274,2.4147,-0.8936,-7.5869,3.5337,10.9556,16.8862,11.6409,0.4652,-4.1567,2.7896,-7.544,-1.4359,0.4259,1.6924,-6.8593,-0.6094,0.0419,0.1,-0.0062,0.0824,-0.0613,2.5496,-4.9543,-6.197,-10.6021,-9.1271,-6.8012,1.7815,-1.8681,5.9165,1.4155,4.628,15.4459,15.1339,-0.6022,-5.3453,-0.7839,4.5821,-5.2627,-0.8508,-0.0467,-3.5622,-6.5426,0.391,-0.3395,-0.1822,0.1682,0.0233,-0.9053,1.4141,-5.8232,-3.8693,-5.5069,-3.9878,-8.9885,0.0564,3.259,6.1028,4.8039,6.7643,12.7891,6.5452,1.4108,-1.3919,0.2537,-2.8181,-5.8545,-2.425,-4.3536,-0.9182,0.5448,1.7653,-0.2596,-0.1495,-0.0565,0.0074,-0.9565,0.0257,2.9266,0.2136,0.9684,-4.8976,-8.4611,1.3545,-3.1152,2.6764,5.9449,14.1899,6.3957,4.5119,1.9953,-10.7423,-5.8559,-6.9368,1.8465,-6.7226,-5.5616,0.6103,2.1035,0.9668,-0.0316,-0.0481,0.0849,0.1409,-0.0855,-2.672,-3.1697,-0.3646,-0.5495,-0.5459,-3.0345,2.685,-4.5383,7.3912,2.0167,0.0695,-2.1225,-0.4746,-5.1874,-0.7959,-6.0239,-4.7592,-4.9871,0.4787,-2.7397,2.4041,-0.7844,0.5305,0.0592,-0.084,0.1071,-0.1561,2.7758,-2.1939,-6.0724,0.2696,-3.9572,4.8407,-3.1719,-4.7583,-8.0571,-7.0129,0.3773,2.7415,-2.7111,1.3592,-2.7932,-4.3379,-1.2108,0.7037,-3.8116,-4.1677,-4.8235,0.4087,-1.9158,0.1511,-0.1419,0.0021,0.0937,0.0013,0.0723,1.8414,-3.1895,-2.0449,-2.8539,1.7326,4.7269,3.5979,-6.7771,-4.2147,-5.2994,5.5949,4.805,0.1618,-1.6241,-5.2136,1.7633,6.1864,-0.0952,-4.9253,-1.5639,-0.862,-3.0428,-0.6851,-0.0397,0.1862,-0.0171,-0.0436,-0.1182,0.1878,-1.7843,-0.5302,-1.5201,1.769,-0.6474,-2.5626,4.7337,-4.0562,-4.3262,-5.1571,1.9802,2.0999,-1.8741,5.3345,4.0183,2.0592,3.4253,-1.0179,-8.1663,-3.8788,-4.0003,-1.4177,-0.0582,-0.169,0.1084,0.1664,0.0966,-0.7431,2.4381,0.34,1.2957,2.2418,-4.8854,-4.8008,0.8915,-1.6536,-0.8688,-4.1524,4.9604,-1.0012,4.5008,4.0027,0.1562,-1.2116,3.6951,-2.4592,-3.0602,0.1241,-0.6392,-0.1478,-0.1325,-0.109,0.115,-0.0843,-0.0416,-0.7736,1.4497,2.5834,-1.9022,-3.5216,0.4464,0.7792,-3.9792,-6.295,-2.1498,-0.9791,-4.9458,-2.6729,-4.8201,0.2578,0.4569,1.2307,2.8349,-0.0517,-0.7711,1.7939,-0.3836,0.0719,0.0749,-0.1321,0.0634,-0.0244,-0.1791,-0.4797,-1.608,0.4911,3.8537,1.482,4.2282,-2.9026,-2.6144,3.388,2.2364,-0.2836,2.4169,-3.218,-3.8521,-0.4757,-2.5865,0.1607,-0.9338,-1.8275,-2.6019,0.198,0.2394,-0.1611,-0.0179,0.0749,0.0668,-0.0266,-0.1113,0.0317,0.1855,0.393,2.9147,3.6046,4.689,3.5299,0.3837,1.4936,5.3472,2.2189,3.1971,0.9515,0.6,2.8048,2.6126,0.8844,0.4727,0.5822,0.4236,-0.1064,0.0492,0.1153,-0.0349,0.1537,-0.0674,-0.0359,0.07,0.1876,-0.1872,0.1011,-0.0112,-0.1203,-0.3912,-0.2003,-0.2314,0.613,0.6413,0.2735,0.2941,0.0661,0.5715,2.7586,1.3088,0.5471,0.484,0.4299,0.0712,-0.0609,-0.0159,-0.0209,-0.1428,-0.1732,0.0823,-0.1287,-0.119,0.024,-0.0426,-0.1026,0.1794,-0.0259,-0.0693,-0.0179,-0.1265,0.1676,0.1254,0.1017,-0.0021,0.2102,0.0304,0.3579,0.3625,0.1524,0.0302,-0.1005,-0.0061,0.0735,0.1311,0.044,-0.0707,0.0859],[-0.0359,-0.1878,-0.0892,0.0228,-0.189,-0.0627,0.051,0.0987,0.1734,-0.1166,0.1484,0.1898,-0.1772,-0.0191,0.1185,0.1219,0.1593,0.1231,0.1148,-0.1732,0.0225,-0.0278,-0.0803,0.1008,0.1971,0.0321,-0.0102,-0.0621,-0.1812,0.1451,-0.0507,-0.0294,0.0556,0.1583,-0.0307,0.053,0.0908,-0.0322,-0.1426,-0.6317,0.1342,-0.2454,-0.1493,0.1073,0.0133,-0.0958,-0.1792,0.1223,-0.1067,0.1877,-0.0855,-0.119,-0.0415,0.0655,0.0093,-0.0572,-0.006,0.0028,0.0242,0.0158,-0.1246,0.0269,-0.0758,0.2038,0.1208,-0.1625,-0.6962,-0.5021,-1.3003,-1.1318,-1.8612,-2.1804,-1.9559,-0.8136,-0.273,-0.0536,-0.0495,-0.0087,0.0781,0.1307,0.9482,0.6915,-0.0662,-0.0886,0.1451,0.059,0.0494,-0.0242,-0.0073,-0.2871,-0.3734,0.455,1.8731,4.1076,2.4084,3.6338,1.0468,-4.9113,-8.1949,-7.0189,-6.1917,-4.4136,-3.1787,-1.8274,-0.7659,-2.8575,-2.5582,0.2496,1.0595,0.8343,-0.0462,-0.0492,-0.1905,0.0029,-0.187,0.112,0.2831,1.1107,2.2234,2.6302,5.8314,7.7822,5.9517,5.4709,-0.2452,-3.1421,-12.4055,-13.0015,-13.488,-11.3466,-9.1716,-6.6132,-6.0195,-7.136,-3.3117,-0.5526,0.5813,0.5848,0.1822,0.0672,0.1765,-0.0474,-0.01,0.1345,1.9826,4.796,4.3366,4.4535,3.2296,2.1025,3.6879,-3.9654,-13.2433,-9.2253,-8.8421,-15.8099,-20.2615,-21.9,-10.7843,-1.9713,-9.7282,-7.6633,-2.4097,-1.5977,-0.0138,0.0335,-0.0398,0.1022,0.1483,-0.1432,-0.1205,-0.0372,4.0725,2.9021,5.1043,2.4671,-1.6044,3.5378,10.4713,10.6073,7.2335,14.2051,13.4804,11.6917,12.7215,6.6635,4.4051,-10.8229,-3.6152,-2.6199,-3.5459,-5.8595,-3.6797,-1.264,0.131,0.2162,0.1265,-0.0449,-0.105,1.4444,1.8197,-2.1606,2.6854,-2.5194,-5.1846,1.707,5.2613,8.2184,16.5433,15.1264,18.8452,15.6734,18.5993,-1.6636,0.7813,-4.5184,3.0694,-7.0425,-5.6628,-5.1628,-5.4322,-2.6478,1.0293,-0.0538,0.1004,0.0483,-0.0024,1.3013,0.3859,-1.9481,1.024,-2.0132,1.1709,0.5395,2.7431,9.4974,19.3771,19.468,20.0866,14.5731,7.4879,-1.8807,6.828,-5.8804,-6.9012,-4.4068,1.4773,-3.1389,-1.8919,-1.1153,-0.4576,-0.0768,-0.1537,0.1033,0.168,2.42,2.7395,0.4573,-0.2783,3.0773,-1.0567,10.6324,15.8535,9.7466,11.1546,24.0888,21.5599,10.0799,3.9184,-1.3414,2.931,-2.9493,-10.832,-3.1687,1.5789,-1.5233,-1.1226,-0.3761,0.0369,0.3687,-0.1876,0.129,0.0233,2.3746,0.6024,-0.789,6.2696,7.7551,3.0162,3.7332,8.0254,2.552,-2.0361,10.522,13.7676,-8.8326,3.2374,-1.2667,-3.7771,-0.8203,-3.4706,-4.1717,-4.2269,-2.289,-1.9976,0.2468,-0.1513,0.1129,-0.0226,0.25,0.3758,2.0621,-4.1566,3.3686,4.595,2.0891,2.418,-11.839,-10.6019,-3.6661,7.8828,8.8292,-1.8796,1.6745,5.4755,6.7583,7.412,0.7096,1.8131,-2.6158,-4.7011,-0.7567,0.5363,0.8106,-1.2401,-0.0962,0.0356,0.2305,0.4108,0.9197,-2.1613,0.0647,0.368,3.5878,1.6235,-3.7321,-10.6544,-19.912,-10.7145,-0.5739,9.403,1.6985,-2.7091,2.6093,6.7445,7.0018,-3.7599,-2.1981,-4.0457,-0.2886,0.8015,1.9538,-0.2912,-0.138,0.049,0.0429,0.0059,0.7846,-3.5569,-8.826,-2.8212,1.387,-6.7445,-1.2793,-7.2444,-11.9856,-10.1497,-1.6442,12.5447,-3.1446,4.1053,-3.3159,-3.8502,-1.4952,0.4241,-1.2619,-4.5658,-4.8946,-4.0383,-0.2135,1.4128,-0.1165,0.0778,0.1874,0.2411,0.74,-2.3508,-12.3969,-3.967,-5.8427,-10.0344,-0.3021,3.0523,-10.7187,-10.4645,1.2211,1.7827,1.0583,3.1946,-5.2424,-7.4398,-6.5969,-1.6921,-3.8493,-12.1436,-8.7902,-3.7261,0.3882,5.2192,0.1476,-0.0591,0.2219,-0.0838,-1.1084,-3.7928,-6.4794,2.0215,-5.328,-13.6315,1.3005,-6.0611,-6.0413,-5.7215,-8.6337,-7.7734,-0.7849,-4.7967,2.449,-5.3873,-0.6059,1.2528,0.9374,-3.9062,-0.0634,3.8056,-0.1404,5.5119,0.1963,-0.1174,0.183,0.3534,-2.1403,-2.9201,-6.3467,-1.6199,6.457,2.7125,-4.8639,-3.4715,-4.9089,2.6948,2.2447,-6.3834,-10.8754,-10.9209,5.5279,1.8184,-0.5471,1.4297,1.2905,4.2455,2.0901,1.7707,0.1096,4.6719,-0.0827,0.1109,0.1123,0.2821,-0.5209,-3.4067,-4.2614,-6.4188,-2.0734,0.8131,-1.7307,-1.8705,2.0649,5.0512,2.6652,-8.2322,-2.8168,-1.7957,2.9015,-3.2303,3.2865,-0.2343,7.766,7.7231,3.3103,3.8212,2.4381,3.5961,-0.1165,-0.078,0.0457,0.2379,0.9906,-0.9859,-3.022,-1.2201,-0.4427,3.8501,3.1875,7.6367,1.2567,-4.2139,-6.3754,-3.4316,-4.4372,-7.297,1.3508,0.3797,4.7117,1.5179,8.3324,9.403,0.9403,0.4064,1.8582,0.7969,0.2632,-0.1061,-0.0819,0.0741,-0.0978,-0.9112,-2.3064,-1.6486,-0.9539,0.243,-7.4485,-4.6632,-8.6021,-6.7386,-4.1292,-2.2183,-9.7539,-5.0838,2.6662,1.5253,6.2912,-2.4692,2.4663,6.084,0.6411,-0.6982,0.1049,0.51,-0.0385,-0.128,-0.1339,-0.2544,-0.5962,-2.1093,-1.8048,-0.8441,-2.6058,-3.3754,-9.5648,-10.8875,-12.9674,-14.1976,-6.9026,1.5194,-5.0421,-2.2012,-5.6459,-3.0847,8.0619,1.1396,-3.6355,2.7454,2.5579,2.1848,0.1485,-0.1526,-0.103,0.1437,0.1758,-0.1197,-1.027,-2.3758,-3.8347,-3.5614,-6.1594,-5.318,-7.1398,-10.1508,-7.9458,-8.4754,-8.6136,-5.4681,4.8004,-0.3987,-9.7498,-3.2509,3.8869,-1.0075,-3.6566,-1.1303,-2.5544,-0.353,0.369,0.02,0.1651,-0.1539,0.0051,-0.1409,-0.5312,-1.7674,-2.7178,-1.9125,-4.8737,-4.595,1.3231,-0.6422,-4.5146,-7.0975,-6.4895,2.8129,-3.1052,-7.2092,-2.5736,-2.9578,-5.3837,-1.656,-0.3286,-0.5449,-1.6989,-1.1557,-0.9298,-0.0942,0.0143,-0.1483,-0.181,0.1483,0.1225,1.3795,1.6847,5.1272,3.1295,-0.0862,0.2335,-5.5129,-3.3773,-7.039,0.6327,5.0718,4.9103,-1.8453,-2.2121,-4.319,-10.7441,0.1438,1.9321,0.9484,0.0848,-0.6946,-0.6667,-0.1425,0.1743,-0.0288,0.0815,-0.0729,0.76,3.3143,6.1123,8.2948,10.613,8.5556,5.4034,0.4747,-1.9715,-3.1269,-1.3822,-7.5244,-4.398,-2.337,2.1174,3.6163,-5.9359,5.5849,4.9184,0.8531,2.6541,0.2947,-0.1293,-0.0263,0.141,0.1865,-0.0426,-0.1918,-0.0129,2.6089,2.0438,2.4212,3.4209,5.4062,4.9161,2.3282,8.8592,13.9963,4.8535,-1.0799,-1.869,4.1579,4.5551,2.499,1.0107,7.434,5.2687,1.0241,0.4283,0.1877,0.1924,-0.1537,0.0307,0.1375,-0.1846,-0.0975,0.1962,0.3977,0.4987,0.6133,0.5982,1.5944,2.1501,0.8182,2.5898,6.2259,6.3873,12.8744,9.6657,12.0761,14.5981,5.9105,3.5893,3.4914,4.5172,1.7422,0.3048,0.2252,0.028,-0.186,-0.0789,0.1912,0.094,-0.1182,-0.0062,-0.0541,0.0355,0.1154,0.2218,-0.0415,0.1028,-0.0344,-0.6694,0.8205,2.4426,4.5611,0.6196,3.3358,3.4228,1.2833,0.8981,0.0192,0.4934,0.4418,-0.0117,0.1461,0.1511,-0.175,-0.0127],[0.0709,0.129,0.0438,-0.0767,-0.1115,0.1559,0.0727,0.0066,0.1801,0.0484,-0.0336,-0.1187,0.0577,0.0906,0.0243,0.1874,0.13,0.0847,-0.013,0.0444,-0.0302,0.039,-0.1705,-0.1578,0.0341,0.1151,0.0685,0.048,0.091,-0.0796,0.1049,0.168,0.0971,0.1984,0.0417,0.0129,0.1359,0.1815,0.1849,-0.0589,0.0147,-0.0341,-0.111,-0.398,-0.0509,-0.0906,-0.0698,0.0151,-0.1082,0.0843,-0.0298,0.1965,0.0673,-0.0221,-0.0876,-0.0109,-0.1952,0.0045,0.1413,0.1261,0.048,0.1256,0.0278,-0.0019,-0.1711,-0.077,-0.5596,-0.5179,-0.1801,-0.3529,-0.5656,-0.7427,0.625,-0.4216,-1.1598,-0.6409,-0.7713,-1.4443,-0.8711,-0.0852,0.1898,-0.1093,-0.0563,-0.1187,0.0747,0.121,0.1371,0.1835,0.0638,-0.0264,-0.3622,-0.0755,-0.2235,0.6347,-1.0285,1.8572,3.0999,2.7862,-3.7928,4.272,4.8409,0.068,-2.3804,-3.2788,-3.2215,-5.8969,-3.9437,-0.7391,-0.2854,-0.0909,-0.0856,-0.009,-0.0972,0.008,0.1169,0.0795,0.112,0.641,1.5258,2.9417,5.1172,5.802,2.9544,-0.7417,0.5798,6.247,-1.8836,3.7035,8.8933,-5.2099,-1.9582,0.546,-0.7419,-7.6017,-10.883,-4.914,-1.373,-0.051,0.0276,0.0151,0.1917,-0.0598,-0.0938,-0.1994,0.7988,3.5117,-0.0789,-1.4899,5.7065,-5.4698,-7.9606,-1.3245,0.1773,2.4425,-0.0243,0.6799,4.818,2.6433,-6.9171,2.6814,-5.113,-1.1662,-2.7874,-6.7415,-3.8663,-0.9214,0.0369,0.1909,0.1922,0.0783,0.34,0.7745,1.3436,2.6777,-1.694,-4.2914,4.3708,-1.6168,-4.498,0.9397,-6.9339,2.3168,-2.5891,-1.0336,3.5507,-3.5949,2.6366,-3.9586,1.2929,-5.2678,-3.4393,-4.2805,-2.8939,-0.7695,0.1829,0.1086,-0.1123,-0.075,0.3087,1.3752,4.5174,13.2789,0.4367,1.8982,-0.8489,3.7746,3.0467,4.0541,4.2456,-3.1884,0.1183,-1.3917,3.8694,2.7421,-3.5506,-0.2898,4.0965,-6.4852,-8.4912,-6.7074,-5.244,-0.3082,1.1094,-0.0154,0.0119,-0.0554,-0.3719,4.8077,7.3182,5.389,-2.5028,6.3378,3.9762,2.4531,3.7616,-6.4559,-1.9775,-2.493,-7.6912,2.1462,0.8361,4.3542,5.4913,5.6476,0.5483,3.3704,-3.3122,-5.9731,-5.9732,-1.3822,-0.1067,-0.1797,-0.0513,-0.1601,-0.2035,5.7014,7.9562,-1.6178,7.6599,7.9195,3.3805,4.2117,-3.5768,-9.9172,-5.2981,-3.8689,3.1472,9.925,2.7519,6.6413,1.1005,1.1207,7.0328,7.9693,2.4813,-6.0759,-5.6965,-0.7818,-0.1088,0.1359,0.1784,-0.1056,-0.6375,2.8927,5.1734,-2.6038,0.6852,-3.9684,-5.4082,-18.1258,-13.6094,-12.518,-10.1487,4.4587,2.8511,9.5873,16.0669,7.5765,4.3731,1.0197,4.408,7.6285,5.8416,-4.4779,-4.0001,0.3258,-0.0951,-0.131,-0.0048,0.1707,-1.249,2.5672,4.534,-9.578,-4.8696,-15.2963,-13.7785,-16.8189,-6.9774,3.2289,-1.4995,4.7439,0.9237,-0.0738,0.5296,-2.3026,1.5479,9.4589,5.7043,-0.621,2.0357,-2.2147,0.0958,0.6862,-0.2483,-0.0252,-0.1375,-0.3539,-1.015,-0.0011,-1.8923,-7.7069,-10.1543,-9.8742,-7.6234,-4.4538,2.08,1.0848,1.1413,6.1809,9.2697,0.8522,4.9048,5.3781,6.2594,2.6373,-8.0447,-7.7872,-8.4114,-5.3024,-0.2351,0.5896,-0.1783,-0.0449,0.0257,-0.5669,-0.5549,-1.3728,-3.2281,-4.567,-3.8555,1.0622,-2.0419,1.3271,2.1242,4.1725,5.7102,4.6696,4.6318,0.2171,7.6732,3.1299,-2.8613,-0.5368,-9.8221,-4.8838,-15.504,-9.7626,-0.4884,0.2412,-0.191,-0.3072,0.0115,0.1106,-0.1393,-1.8455,-5.1302,-3.9173,-4.3341,1.6129,0.8536,-1.5543,-5.6781,-4.6493,-1.6438,2.721,3.6941,0.4213,6.9339,0.69,-5.8818,-3.3635,-0.7639,3.0953,0.8417,-7.197,-0.2976,0.1556,-0.2542,-0.006,0.0873,0.4748,0.046,-2.4912,-6.9767,-4.9708,-7.6339,-5.6323,-0.9982,-0.6557,0.3212,4.7252,3.5944,4.4805,2.8182,8.8146,0.3454,-0.5604,1.9288,-0.6431,1.3316,4.5122,5.0883,8.6459,0.6063,-0.8582,2.4812,0.1906,-0.1616,0.5095,0.9636,0.9277,-4.8672,-10.2736,-13.4822,-12.7714,-16.4921,-3.6684,-7.5308,1.1094,6.7235,12.2696,1.276,-3.9895,1.0914,-4.4428,1.4949,2.6105,2.7981,6.1288,5.9049,0.364,3.7781,-1.2648,-0.2983,0.1645,-0.0632,-0.0686,1.0211,2.8324,0.0147,-6.2336,-10.0805,-5.3665,-15.009,-22.82,-29.6573,-29.1256,-23.6105,-17.0163,-11.7166,-3.0069,-2.576,1.5938,0.1126,1.5404,0.6841,-2.5956,3.5816,2.021,0.2068,-2.5114,-0.2919,0.1691,0.1016,0.0441,0.6328,8.2269,-0.4683,-1.2356,0.0873,-2.3081,-3.2076,-5.9902,-10.5095,-16.5227,-26.0422,-15.7731,-2.4971,-0.6512,5.1111,-0.7272,0.8819,-1.0196,-0.6461,3.036,7.5554,-0.5515,-3.7331,-3.3186,-0.1015,-0.0278,-0.0975,-0.0399,-3.2926,11.8996,-1.4765,2.1123,5.3127,-5.1131,-5.4132,-1.5181,2.3826,2.687,-2.9446,-1.6638,-4.698,1.5892,-1.356,3.4378,-3.9355,5.4092,-2.437,3.6661,-1.6859,-1.4579,-6.1624,-1.6267,-0.0941,0.0102,0.051,0.0798,-0.4844,10.6888,10.2402,-6.2974,2.2948,3.0468,4.2942,6.7202,-4.3786,2.3029,4.1943,-3.1135,-4.5143,-0.5122,1.6022,1.8744,3.3304,2.7255,-0.5574,3.0614,-3.6962,-5.585,-1.1146,-1.1582,0.8549,-0.0108,-0.0582,-0.017,0.4893,2.1364,6.697,11.2881,5.0504,4.0253,-3.4325,-1.906,0.2901,-5.7866,-3.5283,0.266,-6.6273,-7.4134,-3.1579,6.638,1.6693,7.3219,-2.1017,-4.8187,-5.5619,-2.3088,0.2973,-0.2719,0.3619,0.1045,0.0621,0.0246,0.6779,1.1938,0.6517,6.6024,1.4571,-7.7828,2.9898,-4.2026,-2.6334,-0.716,-2.7024,2.0679,-3.1558,7.0184,-10.6476,3.2498,-2.8751,3.2172,-1.9871,2.2073,3.4169,-2.5427,-2.1617,-0.0206,0.0053,-0.1671,-0.1505,-0.0877,0.4573,3.312,3.0574,1.1959,-0.7911,3.5019,-3.7742,6.5522,1.7348,8.2082,-7.2927,-2.1853,-4.4962,-2.0537,-0.36,0.8244,3.0384,-1.6119,6.1517,3.1702,-1.1215,-1.2407,-2.1768,-1.3496,-0.0024,0.0181,0.0746,0.0297,0.0155,1.8723,3.4775,6.4522,6.1103,2.6452,1.8416,1.0025,2.4199,-0.9888,0.1761,-2.3579,-0.8114,-4.5998,-2.7353,5.4189,1.9413,-3.1514,0.0647,-1.0562,-0.5665,-0.8504,-0.4659,-0.0698,-0.0514,0.0247,0.0016,-0.1757,-0.0367,-0.593,-0.5497,0.2579,1.0272,1.181,2.3548,3.0735,2.9574,1.6331,2.8752,1.5423,-3.8447,-2.9085,-2.9354,-4.029,-2.9941,0.1525,0.5356,0.3682,0.2753,-0.1295,-0.1104,0.0527,-0.026,-0.1249,-0.1719,0.0537,0.1199,0.0243,0.095,-0.4551,-0.2051,-0.0784,-1.335,-2.498,-3.4988,-2.8328,-2.2312,-0.0991,2.8521,4.2786,3.777,1.1727,1.2321,1.8408,-0.0509,-0.203,0.0256,0.1375,-0.1795,0.0955,-0.0996,0.1815,-0.1782,-0.1717,-0.0052,0.0573,0.0464,0.1218,-0.0872,-0.0123,0.0301,-0.1602,0.0707,-0.0344,-0.1098,-0.0284,-0.4108,0.114,0.189,-0.2451,-0.2706,-0.1691,-0.2479,0.0933,0.1715,0.1744,0.0173,-0.0648,0.1492,-0.1867],[-0.0481,-0.0754,0.1357,0.099,-0.1842,-0.1184,0.0439,-0.1192,-0.1409,0.1027,-0.0953,-0.1213,0.0278,-0.1225,0.0054,0.1166,0.0306,-0.0441,0.1095,-0.0765,0.0122,-0.1305,-0.1803,-0.1817,-0.0245,0.0986,0.1222,0.1996,-0.0453,0.0771,-0.0336,-0.1015,0.0009,-0.0841,0.0898,0.1843,-0.1619,0.1026,0.1208,0.0566,0.2045,0.1304,-0.0937,-0.0309,0.1142,-0.0887,0.0475,0.1684,0.1454,-0.0592,-0.0674,-0.0082,-0.0195,-0.0741,0.1472,-0.0156,-0.1525,-0.0382,0.1992,0.1459,0.1223,0.1346,-0.1535,-0.209,1.0489,2.3235,1.1241,1.5653,0.9295,0.1639,1.1678,0.2356,-1.258,-0.7495,1.6537,1.9753,2.5979,1.6855,0.5873,0.1665,-0.0392,0.0086,-0.1737,-0.0452,-0.1632,0.0427,0.0582,-0.1578,-0.1183,-0.2071,-0.2682,0.0289,2.0253,2.8751,1.4873,2.1339,-1.2991,2.0168,6.2916,1.9675,-1.2863,-1.6934,0.2177,1.786,1.0676,3.3802,4.5857,4.4794,4.4022,-0.2679,0.1394,0.1838,-0.1505,-0.0689,0.093,0.036,-0.3494,-0.1822,0.4622,2.7013,3.7437,2.874,2.6421,1.5317,1.1385,2.1099,4.4371,5.6576,4.039,1.1031,0.2326,2.1827,1.8761,3.7809,7.9125,4.1645,3.1948,-0.6851,-1.6882,0.1983,-0.0538,0.0536,0.0971,0.4013,-0.9896,-0.5136,-0.8327,2.4827,5.7323,5.6881,7.941,7.737,12.3531,4.848,1.0434,7.8973,4.4024,7.6975,8.2879,8.7902,10.6869,3.556,2.3394,2.1769,0.8213,0.4043,-0.2563,0.1296,0.0869,0.0779,-0.1971,-0.4616,-5.0037,-4.0093,-2.5439,-3.7249,1.7331,4.8279,7.5993,-0.7284,2.9761,4.6699,1.028,6.7096,1.1226,-0.5453,2.7981,7.2725,10.7445,0.5892,-0.4548,-4.3432,-1.5535,1.837,1.0138,-0.021,-0.0982,-0.2285,0.3234,-1.6229,-5.0839,-3.8213,-0.8578,-3.2945,-1.1298,-4.014,1.3249,7.1689,-5.0329,3.2598,-0.2187,4.2179,1.5989,-4.7034,-2.7965,0.8321,-5.6028,-3.9595,-3.5669,-5.0492,-7.5171,-3.6616,-3.4309,0.024,-0.0669,-1.1873,-2.1222,-3.6421,-2.9887,-2.9836,-2.5807,-1.7963,-4.3046,-4.4753,-3.5202,2.5677,-6.8925,6.8383,0.9992,-8.9267,0.4362,-3.0871,-2.3728,-1.6235,-17.0004,-2.0286,-4.3571,-9.3785,-14.9057,-4.4711,-4.5679,-0.0524,-0.0147,-3.0707,-5.0419,-7.5058,-10.9409,-10.2406,-4.1778,4.4202,-1.3321,-5.9823,4.4393,-0.3191,-8.3982,-0.392,-5.3264,-0.4079,-5.9867,-10.4249,-12.0928,-11.3004,0.153,-5.8414,-2.9919,-1.7332,-18.1682,-12.7151,-4.4939,0.0009,-0.1564,-2.2562,-5.6969,-5.2242,-8.0501,-12.208,2.1322,-6.7823,-8.6673,-7.5327,-4.7396,-7.2437,-1.6521,-12.8775,-12.7843,-6.6959,-13.6467,-14.6428,-7.3825,-8.4948,-9.0113,0.1322,3.3144,-7.0243,-16.2456,-13.8793,-3.6476,-0.0798,0.1577,-1.5865,-4.5859,-3.0697,-3.3441,6.3106,2.0577,-2.841,9.2309,-6.3332,-6.0429,-2.0496,-6.2986,-11.9442,-3.9424,10.2315,2.5793,-2.7906,-0.3911,-5.5171,-1.5132,-0.3064,2.163,3.7386,-5.2118,-5.9369,-1.3628,0.1059,0.0513,-1.2408,-3.9035,-1.5505,2.0228,3.3201,2.8778,-0.0517,-3.5399,2.9895,1.6305,3.7968,0.9053,2.9307,5.5801,8.9042,12.1475,5.6724,13.1268,10.8651,11.0754,9.37,13.9404,7.5081,5.8163,-0.3923,-0.5136,0.0645,0.1477,-0.4941,-2.0997,1.1019,1.6842,-3.1559,1.7074,-4.7754,4.8839,-3.9993,-6.6733,-7.0473,-0.4804,10.5646,12.6455,18.9096,3.6678,8.4624,14.5198,15.5926,6.5281,11.5374,11.3199,2.8247,3.9155,1.4411,0.5107,0.6545,-0.1122,-0.4283,-0.808,1.2862,2.6817,-5.1048,-2.0963,1.5984,1.6961,-7.0171,0.1535,9.1049,3.0839,11.4342,16.7653,5.6661,9.1287,7.9201,-2.119,7.4051,-4.6392,1.5911,2.0173,1.9175,0.7037,0.1811,0.4308,-0.1462,0.1152,0.086,-0.3167,-0.3605,-0.9086,-2.4221,1.1528,-3.5101,3.7311,0.1059,4.9644,5.8483,12.1741,6.9326,9.1972,-1.2725,10.648,7.2055,2.6849,1.2099,-6.4664,3.447,7.1269,4.437,-0.5103,-2.6184,0.4465,0.4156,-0.0043,0.1899,0.3169,-1.4716,-2.8486,-2.4224,1.6673,1.1334,5.9071,1.804,0.6932,9.1413,19.1573,11.8363,6.639,7.9206,4.6397,-4.259,3.0809,3.0693,-0.6211,3.5524,5.5743,5.0109,3.4365,4.0442,2.3539,1.5465,-0.182,-0.1709,1.0806,1.657,2.3786,-5.3076,-8.1966,3.1929,8.2543,0.3406,5.6197,12.9494,12.6598,7.7339,-0.706,2.3219,4.2118,-2.0591,1.0348,6.5832,1.2876,4.3411,2.4443,0.2165,3.767,2.9084,0.0727,-0.091,0.1611,0.0764,0.8614,7.5532,7.7877,3.0916,-5.9966,-6.0409,-1.8136,7.6575,14.4659,8.8771,1.7439,-1.6181,8.3402,-8.7217,-5.1467,-6.5021,-0.7328,-4.269,2.1503,0.9345,5.7965,2.5493,2.031,0.661,0.0113,0.0072,-0.1327,0.1349,0.7499,4.2142,-2.0663,-1.1019,-3.4439,1.7622,-2.277,4.5778,1.3276,-1.1753,-1.2681,-3.1951,0.9055,-1.8487,-0.4794,4.6929,1.6622,5.1997,7.8008,8.7753,2.1575,2.2031,2.6363,2.5189,1.9213,-0.1873,0.1238,0.0701,0.371,3.8168,-1.4265,-7.9085,-0.1609,2.0077,6.1944,-3.9801,-8.5128,-9.5551,-10.5356,-1.2514,-8.5491,3.4917,-0.6438,3.2623,5.7807,9.1063,6.5733,8.9492,3.1723,1.4529,1.5135,0.8344,0.3444,0.0051,0.0502,0.1832,0.3806,6.5876,2.7677,-6.7951,-2.2473,-1.9668,2.8985,-5.4317,7.343,2.8142,-0.4458,2.9169,-0.3145,3.3839,1.6326,-2.1181,3.8058,3.5776,1.9368,5.4756,4.1089,4.0368,-0.0834,0.2295,-0.1089,-0.114,-0.004,0.095,0.4397,2.2988,4.2321,2.6379,4.3291,5.2966,3.2522,0.2084,16.2136,2.9778,-1.6699,1.1622,3.4193,0.4796,-0.8161,-6.7372,-4.0566,-3.7597,1.5928,2.906,3.335,4.448,1.1366,1.1215,-0.0961,-0.1433,-0.0903,-0.0085,0.3216,0.531,0.7332,1.7448,-0.5452,-2.8067,1.3018,-9.4474,4.7408,-0.9131,5.12,-1.5847,2.1308,1.952,0.092,3.1378,-1.6064,-2.7141,1.7689,1.4191,2.2401,2.6665,1.0234,1.1212,0.035,-0.0946,0.1957,0.0898,-0.1528,0.0215,0.0406,-0.2449,-1.2195,-1.0764,-1.8715,-2.3048,0.6522,2.2533,7.8784,2.1113,5.3376,0.0006,6.6683,-1.1387,1.6734,2.8721,2.5751,-1.6389,0.29,1.5954,0.6884,0.1684,-0.1569,0.0802,-0.1066,0.1891,-0.0912,0.1337,-0.8711,-2.3678,3.1211,5.677,2.5692,-3.0344,6.8516,-8.9319,-3.0272,5.0474,-0.5171,-4.3656,-3.6243,-3.7836,-2.2163,-1.1357,1.9551,-0.4034,-1.0713,0.383,0.0129,-0.0078,-0.1636,-0.1404,-0.02,-0.1746,-0.1683,-0.1439,0.3699,0.4571,6.9259,9.0355,4.0418,3.5525,6.8725,3.1422,-0.4107,-1.1386,2.824,-4.4676,-0.4008,7.4386,-1.3624,-4.6532,2.5674,2.0888,0.9074,0.1358,0.135,0.1563,-0.0488,0.1355,-0.0591,0.1905,0.035,-0.1342,-0.1281,-0.0337,-0.1907,-0.4258,-0.4953,0.0262,-2.4318,-0.1279,2.4571,-0.7621,0.6035,0.431,1.4077,-0.2996,-2.2482,-0.2832,0.4755,0.1222,0.8443,-0.1354,0.1976,-0.1995,-0.1368,0.0447],[-0.0244,-0.1672,0.1665,-0.0774,0.1618,0.0719,0.0679,0.0546,-0.108,-0.1515,0.1207,0.0121,0.1451,0.1115,0.0528,0.0697,0.1202,0.1739,0.0988,-0.1157,0.0701,0.1396,0.1084,-0.1771,0.0431,-0.1638,-0.0314,0.0128,-0.1913,-0.1921,-0.1911,-0.1711,0.0577,-0.1347,-0.0096,-0.0937,0.1704,0.1423,-0.1558,0.1758,-0.0768,0.028,-2.1458,-3.4694,-0.2108,0.2611,-0.1411,-0.1914,-0.054,0.18,0.0799,0.0732,-0.1882,0.0232,-0.1449,0.1235,0.0819,0.0292,-0.1359,-0.1322,0.0581,-0.1794,-0.1285,0.1675,0.1918,-0.0823,1.7387,3.0648,1.0693,0.9805,-2.3653,-5.3629,-3.7847,-0.8883,0.4513,0.3512,0.2028,0.384,0.2434,0.4694,0.0259,-0.1181,-0.0172,0.0952,0.0289,-0.0786,0.0499,-0.1993,0.1316,0.167,0.0984,-0.0475,0.4891,1.9779,3.5158,10.2094,9.1257,-2.0074,0.1257,0.8109,4.4382,4.3925,8.1805,3.4651,2.3279,0.9647,1.4333,0.6766,0.2693,-0.4818,-0.2664,0.092,-0.1972,-0.0011,-0.0262,0.2161,0.6495,0.5425,0.3029,-0.8393,-3.5312,-3.8939,-4.4274,9.8938,5.2318,5.9519,3.8361,2.5369,7.1106,6.7578,4.0178,8.2216,1.9399,-1.6591,1.1249,-0.3447,0.4159,0.143,0.162,0.0804,0.1163,-0.1889,-0.1619,-0.1119,0.3407,0.9379,-1.4633,-2.1569,-0.0677,-0.314,7.265,9.0894,7.153,5.6194,5.762,6.879,7.2268,15.294,13.1444,5.5451,7.6851,4.8685,0.4429,-1.9775,-1.3236,1.5168,-0.1184,-0.1018,-0.0084,0.1387,0.9173,1.3628,3.4625,4.444,1.3961,0.96,4.5521,8.9042,4.8695,3.6168,5.8047,4.966,-0.4069,6.1469,4.1529,8.4971,0.2515,0.3,1.932,3.1608,-0.6735,-5.0468,-2.2574,3.8192,0.6347,0.0903,0.1579,-0.0257,0.8433,0.9872,3.363,3.5619,7.3966,6.6117,10.0847,7.235,1.8073,-3.6893,-0.3029,3.2329,0.0467,2.9345,-1.7581,0.7693,-3.7752,-5.7767,1.866,-2.0082,-4.3504,-5.937,3.3003,5.6499,1.8883,-0.2269,0.1418,0.0741,0.5772,1.3638,1.2602,1.5603,4.3377,6.1549,2.936,2.1047,-3.811,0.5421,-3.8714,-0.205,2.0648,-0.3778,5.9899,-1.1477,0.2096,-1.1247,-1.8111,-0.6713,-0.0312,2.8352,6.2167,4.6919,0.5215,-0.2187,0.0689,-0.0433,0.0952,1.5458,2.9775,2.3765,3.6712,3.1949,3.0148,0.6048,-2.2963,1.0236,-1.6828,-10.1396,-10.7179,-13.3948,-7.1599,1.6504,-4.8347,-6.745,6.1075,6.2102,2.2409,3.9736,2.1584,1.5779,0.6985,0.0405,0.104,0.1606,-0.1441,2.7587,3.3811,3.9653,1.9025,2.6855,1.047,-0.1106,-3.0232,1.0902,1.6792,-11.8311,-18.3375,-19.2142,-4.3764,0.996,3.8837,1.7481,8.9204,-0.0586,0.4286,1.8208,1.0513,0.224,1.2128,-0.054,0.0993,-0.1596,0.0758,1.1852,1.9141,4.0427,2.0947,0.2599,-1.3009,4.169,-1.4438,-1.9308,-4.8661,1.4673,-6.9308,-5.463,2.6804,4.2065,7.2677,7.8075,4.4756,-1.5038,-0.7229,-0.3401,-1.4094,0.6076,1.0157,0.0272,0.1371,0.1489,-0.0129,0.3029,1.8437,4.2538,1.7498,-0.6124,4.2611,-0.7055,3.2725,2.9665,-4.2212,-2.3067,-6.338,-0.8282,-5.4313,0.1277,4.605,11.0682,6.4014,0.7942,0.7711,-0.8423,-1.4461,0.8517,1.0355,-0.0499,-0.1152,-0.1792,-0.1522,0.1638,0.9367,1.8717,0.8806,0.2369,0.3348,-2.6872,-4.009,4.2365,0.9786,-0.0729,-4.8426,-9.8006,-8.0018,-8.8597,2.0434,4.6054,0.3315,-1.1266,-1.3862,-0.664,1.2887,0.8806,0.4889,-0.0578,-0.0266,0.1723,-0.0868,-0.1758,0.1038,0.8281,2.2394,-0.0931,-2.4109,-4.92,-3.9975,3.0642,2.25,-0.1404,-1.7918,-7.655,-10.7623,-2.0749,3.6359,3.9421,2.339,0.6047,-0.0603,1.2802,0.244,1.6691,0.1876,-0.1059,0.0985,0.1631,-0.1434,-0.487,0.2989,2.0705,4.5601,0.2469,-2.3787,-0.9197,3.5216,-1.1253,-1.4714,-5.4497,-12.647,-0.0498,-6.3454,5.2782,11.3913,8.6415,5.9295,2.7451,3.1696,5.6371,4.1744,3.0176,1.2865,-0.0233,0.0051,-0.1076,-0.2014,-0.2005,0.674,1.3807,4.887,5.7609,4.3535,3.9157,0.2452,-0.6101,2.5767,0.9993,-5.7218,4.5409,-0.3058,21.373,17.5321,11.641,9.9465,6.6103,6.3919,6.0272,3.9526,2.4488,1.1372,0.3399,0.1422,-0.0016,-0.0708,-0.5824,0.1269,1.6138,6.7798,9.7919,4.2093,3.2674,1.3244,-1.3072,-3.9289,-3.9475,-7.8953,3.5891,10.1197,19.554,10.7912,12.5819,12.1283,6.3185,8.4318,6.6273,4.2262,2.4076,0.3371,-0.2416,0.1312,-0.0389,-0.0685,-0.639,-0.4248,3.1709,6.3714,3.8115,3.9382,5.9452,3.8968,1.323,-11.2895,-5.7304,-3.3308,14.4475,14.624,6.2996,4.2236,6.2651,6.4603,5.7268,6.6788,3.9557,1.6712,0.2238,0.2423,-0.8217,0.0261,0.0852,0.384,0.711,2.1865,6.5568,4.966,-0.815,6.7642,2.8144,2.6447,2.8689,-0.1049,-5.7804,-5.8413,11.8351,1.3847,0.9457,4.9643,2.5419,1.3128,1.4136,2.3796,2.0227,0.1815,-0.5818,0.278,-0.3673,-0.1867,0.0333,0.155,0.8886,3.3137,7.6473,3.7779,1.6672,-3.0259,-3.9025,0.969,3.8684,-3.0283,-2.1158,-4.4793,-2.942,-5.4716,-6.5802,-4.6432,-1.1847,-1.0989,0.7667,3.9999,3.4108,1.4943,0.4759,0.1774,0.1019,-0.1006,0.0011,0.0736,1.2182,1.6478,0.4573,2.0879,-2.3449,0.6126,-2.4139,-6.6986,0.3707,6.1332,10.1326,-0.8737,1.7637,6.1684,-4.6509,3.167,3.5449,1.2745,0.0939,2.7364,2.6023,2.1964,1.9002,0.48,-0.1675,-0.1258,0.0813,-0.1105,-0.3519,1.9569,-3.2635,-1.2356,1.1565,0.8032,-0.0801,6.9595,4.9171,7.2425,10.0723,-0.8018,5.6182,-1.1391,-7.936,-6.3795,-9.6303,-8.102,-2.8548,1.6003,1.7194,0.8683,0.1575,0.116,-0.1779,-0.0371,0.1364,0.0097,0.6173,2.9571,-2.6596,-4.0768,-1.1786,2.9231,3.4051,7.6272,4.6875,-10.1527,12.5363,16.5879,-1.4133,0.8503,-1.9406,-5.3299,-11.3306,-6.7119,-1.5928,0.2037,0.3745,-0.3872,-0.4563,0.1118,-0.0527,0.1901,-0.1538,0.097,0.6565,1.2893,-0.7463,1.7401,1.5191,2.2022,8.006,6.4991,5.187,8.0079,16.5506,7.0992,5.4805,9.6671,7.8844,-4.6138,-4.079,0.299,-0.569,-0.8106,-0.2491,-0.1011,-0.0017,0.0556,0.0765,0.0428,0.0973,0.0006,0.0599,-1.6405,0.0018,-0.8184,-1.6187,-0.3738,4.0146,4.1988,5.2797,6.4599,4.0311,2.6051,8.0435,9.1642,3.5249,3.5031,6.072,1.8876,-0.5249,-0.3198,-0.3409,-0.0705,0.1192,0.1784,-0.1525,-0.0065,0.1444,0.0573,0.0911,-0.393,-0.3914,-0.4091,0.6567,1.1583,-0.3013,1.9628,2.8801,2.2443,1.891,-0.7837,-1.3333,1.5463,-0.1909,0.1958,1.0582,0.584,0.5052,0.0468,0.0288,0.1633,0.1876,0.0802,-0.0334,-0.0831,0.187,0.1471,0.1755,0.1332,0.1599,0.1247,-0.0813,0.0102,-0.1033,-0.0658,-0.1144,0.0066,0.0758,0.4054,-0.0539,0.0748,-0.1702,-0.0039,-0.0305,0.1282,0.1859,0.1623,0.1635,0.0795,0.0279,-0.007,-0.067],[-0.1774,-0.0352,0.1558,0.1149,-0.1816,0.1192,0.1553,0.0396,0.1923,-0.069,-0.1425,0.0148,0.0992,0.0213,-0.0121,0.0032,-0.1815,0.1407,-0.1066,0.1099,-0.1823,0.0249,0.1573,-0.1601,0.1701,0.1685,-0.1963,0.1986,-0.0986,0.0694,-0.1534,0.1874,0.0678,0.0327,0.0826,-0.1363,0.1077,-0.1034,-0.1528,-0.1931,-0.311,-0.0827,0.2176,0.2636,0.6989,-0.019,-0.1304,0.1137,0.1425,-0.0093,-0.1799,-0.1851,0.1323,0.1487,-0.1686,-0.1597,-0.0373,0.104,0.1035,0.071,-0.0451,-0.134,-0.3445,-1.5375,-2.0072,1.5834,2.9967,1.8663,2.7239,2.2379,-1.6023,2.8403,12.6377,3.0551,-0.1095,-0.3068,-2.9301,-3.1641,-2.4031,-1.2332,0.1215,-0.0764,0.1175,-0.1572,0.0658,-0.0734,0.3415,0.1286,0.1159,0.204,-1.3809,-2.0482,2.5726,8.6668,7.8844,2.0345,3.2398,6.3244,2.3688,7.2809,1.3981,-0.8819,2.5991,1.3576,-2.1162,-0.1052,-0.4736,-1.2251,1.5517,0.0474,-0.1691,-0.0275,-0.1811,0.1031,0.7779,0.2325,-0.1905,1.0656,3.5926,4.1402,8.9132,14.1447,11.3403,6.9019,6.7063,5.4907,8.7073,5.6266,4.2271,-9.9136,5.3117,2.17,2.5659,7.8726,2.2749,3.7725,2.8109,0.2129,-0.0836,-0.0518,0.119,-0.0086,0.1891,0.4436,1.3736,4.3754,6.6614,4.3089,2.1391,4.0675,4.7528,7.0008,1.5918,6.7479,2.9997,11.0002,12.2244,8.4274,12.4312,6.4667,4.7566,3.9068,5.0621,3.3371,0.5143,-0.1636,0.1146,0.1047,-0.0333,0.1152,-0.1188,0.8854,0.1459,3.0037,0.385,4.9199,7.1412,5.477,7.5051,9.2905,14.1795,10.3725,14.119,11.5009,16.7837,10.5279,8.599,7.6147,3.08,-1.2197,3.2209,4.4924,-2.0612,-2.612,-0.1375,-0.0628,-0.1011,0.0954,-0.1577,0.5967,1.3632,3.7707,-0.0755,2.0455,-1.5118,-0.1808,3.2322,-0.1562,-1.604,-2.6517,-5.1569,2.9133,5.1907,-0.9667,-1.1581,-1.5388,-4.5399,-0.5973,1.395,-1.5991,-4.1821,-1.7801,-0.3381,0.01,0.1582,0.0627,-0.4055,0.3656,4.0598,2.4686,-0.2849,-1.0293,-3.8515,2.08,0.9136,-9.0768,-6.2069,-0.4192,-1.2987,-10.6723,-12.5667,-5.0114,-5.6538,-4.0124,-4.3202,0.9519,-0.5226,-6.0107,-4.84,-0.0999,0.2835,-0.1537,-0.0695,0.1709,0.1395,1.2425,1.4941,-0.8777,0.3847,4.3994,5.3521,-1.3644,-6.6496,-6.9796,-3.8178,-7.3371,-5.5977,-3.1564,3.7896,-0.7376,1.8411,0.6087,-0.8043,-3.1667,-0.4494,0.3255,1.9803,2.2434,0.8721,0.0662,0.1204,-0.1446,0.0593,3.9993,0.3247,-6.5229,-1.8639,-0.876,-6.6781,-5.5345,-3.5528,2.0785,-3.2909,-3.9201,0.5962,0.0697,-2.2526,-1.5118,2.7981,9.8477,5.6271,2.5062,6.5176,7.8871,5.6076,4.3385,0.1887,0.1945,0.179,-0.0334,0.0665,3.3077,0.8307,-4.5032,-7.0653,-10.4184,-14.4364,-13.4474,-5.5296,0.4356,1.2993,-0.9785,5.2572,6.2815,8.3914,12.6024,8.4935,4.6038,4.0408,-5.4132,-5.1913,-1.2003,-1.2896,-0.1389,0.1745,-0.1,0.0188,-0.1859,-0.041,1.3419,2.818,-3.5004,-12.86,-11.8502,-8.2916,-3.9235,-7.5541,-9.5584,1.3608,2.2137,6.9836,0.9755,5.5076,-8.735,1.1525,-0.121,1.8273,-9.4012,-16.7013,-9.9764,-7.4099,-1.4095,-0.2103,-0.1976,0.0399,0.1132,0.1008,2.5974,3.0997,-2.7693,-11.6871,-7.6526,-5.2385,0.0701,-7.1646,-9.3865,-7.8871,-3.7453,11.0984,5.7895,2.9456,-5.1007,-4.9137,-2.6314,-3.5358,-12.4253,-13.875,-15.238,-10.9469,-2.3589,-0.4039,-0.0159,-0.0207,-0.0441,-0.0911,3.9078,3.4536,-2.4633,-8.852,-5.7122,-6.6165,1.259,-1.9798,-2.9003,1.637,0.1529,12.111,1.4704,-0.2001,-7.1266,9.5508,-3.048,-8.6961,-6.261,-6.6772,-11.7094,-9.7817,-0.0154,1.2099,-0.1963,-0.0719,0.0772,0.444,4.6121,5.0202,-0.6735,-5.0366,-6.6653,-5.9163,-3.5988,1.6577,-0.7591,-4.273,1.7821,-1.372,3.6081,-0.0585,-5.4084,2.9218,-1.3359,-3.6788,-9.5924,-7.3932,0.5356,-1.1835,1.768,2.0356,0.1561,-0.0929,0.075,0.2799,3.2192,6.8318,1.983,1.141,4.9212,-3.3226,-1.2016,-0.0254,-4.3878,0.5952,3.098,4.7494,-9.6503,1.7141,-0.1203,-2.0623,-6.0069,-2.3261,0.8316,-1.5786,4.3474,7.0149,2.2062,1.4101,0.0023,0.0145,-0.0898,0.8356,3.8843,6.6038,8.8462,2.0059,-5.0027,3.9573,-10.4958,-11.6159,-14.226,-12.0921,-8.3779,3.2472,2.7284,-3.3342,-0.9026,-1.1764,-3.2447,-3.6009,1.1169,-3.8126,-2.8622,1.7342,3.2447,1.296,0.0079,-0.102,-0.064,1.0199,3.8408,6.7347,11.3114,8.0238,-8.6067,-3.8329,-10.5371,-7.0084,-0.4105,-4.646,-2.35,4.4769,2.6746,1.1006,4.5319,-1.6671,4.7688,6.6178,9.5555,5.0706,4.5835,6.7447,3.6304,0.7039,0.0119,-0.1443,-0.0141,0.3099,1.6843,4.4542,3.2229,2.1634,4.0498,-1.0407,6.0865,-5.8833,-2.5848,-3.5953,-2.1946,-0.7912,1.5197,-1.523,3.3468,3.7363,7.5273,5.7867,7.9751,1.5647,1.3333,6.5441,2.6957,0.4862,-0.0879,-0.0384,0.0771,0.2184,0.86,4.7494,3.9146,3.4414,8.0243,4.4107,-3.0523,0.5013,1.1614,-3.0966,-2.6974,-4.4931,-3.203,-5.6688,-1.718,0.7873,-6.6968,-0.4311,-0.434,10.0391,-1.5288,-0.3445,0.3038,-0.05,-0.0575,0.0276,0.0611,-0.1755,0.3564,0.125,4.8388,4.8337,-2.0803,-0.7206,2.4741,9.6373,1.5867,-1.1374,-4.2722,1.2565,-2.7581,7.4642,-2.0719,1.2519,4.6367,6.5236,5.6965,11.4378,1.5406,-0.2336,2.2692,0.2766,-0.0135,0.0802,0.0764,0.2578,0.587,1.2496,3.0759,3.0354,7.0669,2.1498,4.929,-1.1306,2.071,-7.1551,-1.9234,1.6463,-1.2239,-8.541,2.8508,2.6543,1.2171,1.8,1.786,2.6423,0.6013,-0.1393,0.2214,0.0581,0.077,-0.0557,-0.0233,0.4114,0.7363,0.8914,2.5753,-0.4925,3.184,1.7808,-1.2872,4.0658,-3.1072,1.213,3.5441,2.0474,0.3558,-2.7438,1.3182,1.2376,0.9736,-1.9576,-0.6294,1.0221,1.0243,-1.7066,-0.4331,0.0979,-0.0857,-0.0657,-0.0535,-0.0254,-0.1675,-0.2228,-1.1622,0.3924,3.6715,10.1629,4.9603,-2.1196,-3.9983,0.1224,3.2884,-4.4663,4.2813,-2.7335,1.587,-0.7987,2.4379,0.845,1.4124,2.7382,0.3297,0.1885,-0.034,-0.0008,0.0736,0.1681,-0.0971,-0.0736,-0.421,-0.5026,1.5303,1.6119,1.238,3.977,6.4069,5.6176,2.9647,3.8116,-1.5886,3.3772,-1.4825,4.2911,3.7753,0.7884,1.8512,1.5985,1.9758,1.1269,-0.2311,-0.1137,0.0867,-0.1846,0.152,0.1363,-0.1433,0.113,0.1907,-0.1758,0.0457,-0.0156,0.1464,-0.0677,-0.2388,-0.9844,0.2732,0.7696,0.6437,0.1022,0.0605,0.1702,0.7625,1.5959,1.5751,1.601,0.6256,0.0685,0.0291,0.0274,0.0418,-0.1627,-0.1335,-0.0222,-0.1245,-0.1344,0.0821,-0.0161,0.1819,-0.0402,-0.0426,0.1648,-0.0021,0.4852,0.1315,0.1489,0.027,-0.0862,-0.1288,-0.1404,-0.1491,-0.0872,0.1021,-0.1506,0.0142,0.1043,0.1485,0.0593,0.065,-0.004,0.0525],[0.1514,-0.0791,-0.0625,-0.0842,-0.1939,0.1929,0.1049,-0.134,-0.0494,0.0101,-0.0593,-0.0844,-0.1699,0.1355,-0.1547,0.1738,-0.0935,0.1411,0.021,-0.072,0.1877,-0.116,-0.1165,-0.0187,0.1292,0.1216,-0.0984,-0.0063,0.0499,0.1077,0.0179,-0.1856,0.1053,-0.1866,0.1403,0.1613,-0.3014,0.0408,-0.1926,-0.1039,0.0439,0.1545,-0.1217,0.065,-0.1425,-0.22,-0.0974,0.0332,-0.1684,0.0653,0.1415,0.1201,0.1526,-0.0055,0.1111,0.1593,-0.1331,-0.1633,0.0851,0.063,0.0244,0.016,0.0444,0.1467,-0.1458,-0.038,0.0263,0.4512,1.5398,1.9012,1.658,1.2632,-0.1927,-0.3535,0.4118,0.0541,-0.4356,0.2918,0.1082,0.2448,0.0956,0.0351,-0.0016,0.0397,-0.0946,-0.1956,0.1142,0.0567,0.0199,-0.2966,-0.1218,-0.1826,1.3776,2.7121,2.6798,2.9109,-0.1665,-1.5807,-2.425,-1.8113,-1.5511,-0.7707,2.6631,1.4164,-1.2227,-6.1146,-2.1256,-0.0708,0.1886,-0.1734,-0.134,-0.0443,0.1377,0.1037,-0.1021,-0.1364,-0.1876,-0.2147,-0.7948,-1.7981,-2.0621,0.9106,-0.3821,-2.0738,-2.5147,3.7413,6.0554,-1.2948,1.9716,2.1538,-0.8351,3.3512,2.8472,-7.9239,-5.7641,-4.8823,-2.8456,-1.8457,0.2355,0.1832,0.0637,-0.038,0.1165,0.0438,-0.2399,-2.0701,-4.872,-4.1711,-4.1193,-3.0734,-15.0936,-1.8913,1.8465,-4.9627,-1.1482,-2.4603,-2.7496,-4.9021,-3.6215,-3.1793,1.3516,0.7031,-8.951,-9.5885,-9.9908,-5.2726,-0.1722,0.0158,0.1058,-0.0873,0.1401,-0.1967,-1.7052,-4.0405,-6.1541,-3.8187,-3.0428,-5.634,-8.755,-5.0614,4.8398,-1.6852,-1.6247,0.351,-4.6801,-10.1518,4.2458,-3.0987,-4.1874,-9.7503,-9.459,-4.8316,-16.0704,-8.1472,-2.3137,0.141,0.1012,0.1439,-0.0166,-0.194,-0.5375,-3.0417,-6.1416,-1.5714,-2.6096,-5.3052,-1.4465,-8.6918,-6.1481,-6.9658,-7.8828,-3.2743,0.6313,3.2394,-0.5225,-6.3812,-10.1357,-6.672,-3.6654,-1.9896,-10.1475,-7.4898,-1.5546,-0.1512,0.1033,-0.0833,-0.1022,-0.3708,1.1226,2.5511,2.6019,11.4702,4.5944,3.0406,0.5541,1.911,-10.5985,-0.7529,-4.6743,-5.8882,-10.6712,-2.3515,-11.2332,0.7296,2.274,0.864,3.9382,-3.3615,-0.797,-0.5737,-1.5905,0.156,0.1462,0.1621,0.0747,-0.0578,1.6902,6.5812,3.664,6.9266,7.6827,9.8363,4.6948,2.2617,2.9969,-1.3369,-3.9582,-1.8761,6.4287,9.6826,7.9407,7.396,13.0683,7.9873,10.3535,8.9495,-1.7908,-1.4113,-1.0757,-0.2635,-0.0431,-0.1946,-0.1669,0.027,2.2163,5.4319,9.3404,2.1628,0.5634,5.0537,7.4897,3.3066,4.4018,-0.8796,10.1387,15.6316,9.2384,17.0356,17.6881,22.3148,13.1215,13.5624,20.727,15.4613,2.4651,-1.6858,-0.6822,-0.6425,0.0069,-0.0506,-0.1222,1.0526,2.0278,5.3345,8.5438,5.4045,-0.9409,3.9649,-1.5775,3.5637,-2.5465,2.2822,13.1745,5.9457,3.6597,3.7067,6.1952,11.2313,11.8801,17.5656,19.3653,11.5991,6.0737,0.2001,-0.1515,0.067,0.1983,-0.1509,-0.2904,1.149,-0.0123,4.482,0.46,4.5122,0.2976,-2.9524,-8.1586,-4.0493,-6.519,11.0114,12.6222,12.7039,5.2466,9.7518,14.5301,13.3866,-0.0542,10.2363,8.2587,10.2039,5.9401,0.7478,-0.0561,-0.034,-0.0365,-0.1592,-0.1219,0.7043,-0.4428,1.8642,-5.7377,-3.2941,-0.3714,-9.6349,-1.5371,9.4539,6.3621,8.2283,4.0351,15.6643,14.6359,5.2046,7.8123,2.0394,-0.0621,-0.6549,-1.5757,4.672,4.0301,0.4208,-0.0095,-0.1514,0.1548,0.1039,0.0461,0.3489,-0.6093,-0.1688,-3.6704,-8.5024,-9.7033,-3.4836,-4.6673,8.6733,4.0933,8.9977,-0.9775,8.0543,16.2821,11.6444,6.208,1.0725,-7.6747,-3.9682,-6.9145,-7.5058,-0.7558,2.045,0.0272,-0.1036,-0.1927,-0.1675,0.035,0.4925,0.2036,-2.1251,1.7117,-7.211,-3.5581,3.8838,-2.9272,8.3889,10.4186,13.9389,12.096,14.7189,4.5258,2.2365,-4.7418,-6.5324,-9.4202,-8.6579,-2.8435,-9.804,-2.5626,3.9537,0.4061,0.0579,0.0501,-0.1182,0.0162,0.3653,-1.1788,-0.7031,5.2706,5.4981,15.3188,11.2796,7.2594,5.5541,11.7919,4.1031,5.3888,13.3213,1.811,4.0895,-11.7659,-8.3234,-4.1071,-3.8223,-2.9768,-5.9316,-2.6892,3.1114,0.573,0.1487,0.1819,0.11,0.9105,0.8714,0.3845,-0.0919,4.8662,6.0595,14.024,11.7973,8.0035,7.0595,5.6327,5.2211,8.0283,21.6976,1.855,-5.4043,-10.0631,-13.8459,-4.384,-1.1989,-4.919,-5.8751,-1.7547,0.9256,0.2257,0.0073,0.1234,-0.0543,0.1865,0.3203,-1.0608,-3.5351,1.1582,7.1689,5.2572,10.1448,11.0404,18.4714,17.9348,12.7341,1.4859,-1.0935,-15.3222,-5.6091,-7.5637,-8.3624,-7.1526,-5.4429,-4.253,-3.6149,0.3002,0.7111,0.776,-0.0011,-0.1495,-0.1006,-0.1132,-1.3511,-2.6661,-6.1374,-6.8121,1.3835,-0.4227,7.7335,15.2068,12.0149,9.4686,9.7399,-0.7561,-6.0454,-8.367,-5.3005,-8.0315,0.1184,-3.9544,-4.4735,-4.0083,-0.7394,-1.876,1.3298,1.1555,-0.0101,0.1947,0.0263,0.024,-1.4604,-1.6651,-2.6615,-1.4652,-2.2525,-5.4881,0.5536,-6.0468,-4.2523,-2.184,-5.3699,0.1744,-4.6605,-10.6863,-7.9725,-2.8373,1.6979,-3.1126,-0.988,-3.3899,-1.5469,-2.248,0.7661,0.0754,0.0151,-0.1899,-0.1218,-0.1977,-0.3849,-0.3385,1.6844,-0.0542,3.7084,-4.3987,2.002,-2.634,-7.3945,-10.9148,-10.1468,-11.4576,-5.5559,-4.9634,-1.1935,-3.5919,-4.7764,-6.495,-3.3294,-2.1681,-4.9657,-2.5396,0.3949,-0.1356,-0.0471,0.0641,0.0674,0.0321,-1.9888,-0.5906,-1.9305,2.9918,-1.8352,-0.7372,-6.3013,-2.3133,-7.8153,-9.5551,-4.6587,-5.2699,-1.6117,1.4196,-3.8184,-4.2679,-4.0604,-6.7687,1.738,-5.7056,-7.919,-0.1111,0.3867,-0.1783,-0.1704,-0.1038,-0.0458,-0.0241,-1.6616,-3.4604,-5.8758,-5.7519,-3.8255,-0.8497,-4.3287,-11.0967,-7.5268,-4.1115,5.2541,-5.2041,-0.8643,-4.4512,-4.5656,10.825,3.971,2.9629,2.1683,-2.5979,-1.4549,-0.1178,0.3073,-0.1244,-0.0729,0.1589,-0.0257,0.0072,-0.1268,-1.1263,-2.7455,-5.0479,-9.1138,-6.5991,-6.333,-8.061,-5.9921,-2.6869,-6.7096,-2.3989,-2.1372,-0.295,-1.6545,-3.4914,-1.7172,1.4363,-0.475,-3.0606,-0.2551,-0.7803,-0.1201,-0.0534,-0.0482,-0.0613,0.0882,-0.141,-0.1698,-0.2006,-0.5534,-1.1067,-2.4217,-5.1706,-5.1983,-4.116,-1.8113,-3.4905,-5.2054,-1.8573,5.839,2.1497,-5.7628,-7.1468,-10.9472,-3.5836,-2.5525,-3.4856,-1.9048,-1.6024,0.1009,-0.0507,0.0599,-0.0402,-0.1787,0.1002,0.1693,0.1848,0.0036,0.0009,0.1687,0.3218,0.5675,0.5852,-0.0306,-0.9355,-1.5659,-1.2301,-0.327,-1.3903,1.1387,2.533,-1.3853,-0.8671,-0.7213,-0.3241,-0.104,0.1979,0.0987,0.0274,0.0142,-0.03,-0.0479,-0.0648,-0.1684,0.1801,0.1342,-0.1915,-0.0565,0.043,0.1891,0.0719,-0.3076,0.0805,0.0448,0.0909,-0.1025,0.1369,0.1367,1.1132,0.4406,0.0664,-0.1918,-0.0212,-0.1875,-0.1372,0.0754,0.1597,0.1166],[0.0865,-0.0666,0.0004,0.0071,0.1429,0.018,0.0965,-0.0333,-0.0817,0.0177,-0.0247,0.0988,-0.9566,-1.7929,0.0063,-0.1648,0.1106,-0.161,-0.0739,0.0589,0.1631,-0.176,0.1968,-0.0801,-0.0055,-0.1964,-0.0465,-0.0925,0.1259,-0.0729,0.1617,0.1006,-0.101,-0.1653,-1.2742,-2.7887,-0.9123,0.0349,-0.2381,-0.6843,-1.6069,-1.5352,-0.121,-0.1237,-0.1368,-0.0792,0.0576,0.0132,0.1341,-0.1523,-0.1947,-0.1414,-0.0962,0.1299,-0.1368,-0.0719,0.0304,-0.0454,0.1952,-0.1904,-0.0526,-0.1741,-1.282,-3.87,-2.5711,-1.0948,-4.1536,-2.5303,-3.3727,-2.6428,-1.9905,-0.4444,-0.5998,-0.1919,0.1249,-0.497,-0.0214,-0.1929,0.0947,-0.1658,0.0677,-0.1045,-0.1306,-0.0135,-0.0767,0.1385,0.094,0.0324,-0.0433,-0.2729,-1.7527,-3.8467,-2.763,-2.6746,-6.6561,-5.0675,-3.7566,-6.9488,-7.2223,-1.5511,-3.8493,-2.6327,0.8736,0.0831,-1.1408,-0.0408,-0.0847,-0.0227,0.0751,0.1906,-0.1093,-0.1767,-0.162,-0.1958,0.0819,-0.0391,0.0093,-0.1772,-1.9478,-3.8721,-3.3659,-6.8997,-6.0827,-4.7761,-1.4186,-2.2651,-0.0553,3.7535,-1.4566,-5.4388,2.4293,2.8802,-2.0807,1.6153,-2.5638,0.0276,1.1184,0.5919,-0.1973,0.111,-0.0789,-0.0034,0.0574,-0.017,-0.8519,-0.912,-1.9873,-3.0304,0.7362,8.0461,-1.1234,1.0819,2.7185,-2.7366,-5.3301,5.287,-5.1104,-2.0326,1.0595,3.9914,-2.134,-3.2302,-0.4462,-2.958,2.6302,0.3203,-0.2908,-0.103,-0.1943,-0.1416,0.1661,-0.4966,1.4481,6.6325,2.9091,-0.2309,7.8659,-4.5604,-9.1062,5.5945,-1.047,-2.6628,-1.92,2.3139,2.4339,-0.2412,4.1813,-2.7054,-0.5134,-0.8528,-6.3573,0.5904,-2.4555,-0.5171,-0.0299,-0.0273,0.1013,0.2757,0.041,-0.3382,-5.3067,-0.5142,4.2782,4.7049,-2.0613,-0.3013,2.8219,-5.7215,2.7429,3.095,-4.6889,1.8269,-1.0019,4.4774,3.6495,0.2442,-1.9865,3.2186,-2.9216,-7.4404,-9.1894,-6.6868,-0.0391,0.0963,0.1023,0.0838,0.0302,0.5222,-4.3614,0.9446,4.9309,2.8934,1.0204,5.3458,-1.3326,2.162,-5.5905,-1.4524,-0.7383,1.2487,-1.7763,0.9022,1.954,-3.7068,6.4977,1.7281,-0.7186,0.3554,-10.9694,-8.9365,-1.8648,-0.2481,0.013,0.3378,0.4228,3.598,3.3342,3.1386,7.482,5.6508,-2.3633,3.8664,1.1931,6.5881,5.5638,-0.0883,-1.4606,4.7349,4.4346,0.0751,7.1434,7.5399,-0.4742,1.6629,8.2743,-8.6667,-12.3218,-6.8737,-0.045,0.121,-0.0211,0.331,1.8376,1.9338,2.6795,-0.7173,-1.1338,-3.7165,-0.9963,3.6586,-2.4795,-6.0148,0.1424,-5.0971,-8.6391,10.3713,11.9969,6.6155,4.8589,5.1521,9.1763,2.4656,0.2047,-10.1952,-13.7095,-4.1138,-0.3049,0.0682,0.1585,4.0706,6.9069,4.3246,-3.3244,-0.118,3.979,2.0765,5.3637,2.9592,-0.8572,-2.4495,-2.4545,-5.9088,3.6177,7.2055,9.831,9.3265,-3.3963,-2.3612,11.0376,1.4776,4.3772,-0.2869,-6.7537,-2.6072,-0.2674,-0.003,0.1261,4.477,5.745,1.6547,1.6776,1.3646,-1.1818,4.5144,-7.8612,-6.0279,-0.4505,-4.4956,-9.8009,2.5026,-1.136,4.1839,1.5267,2.5673,7.6552,2.7375,-1.3171,5.1378,0.5875,1.8128,-6.1996,-0.966,-0.6456,-0.4584,0.1889,0.4801,0.9158,-1.9163,4.639,2.4039,-2.823,0.7682,-4.9583,-2.7359,-2.201,2.3371,1.0198,-0.6738,3.1031,-1.1992,7.3893,5.2945,7.5625,-0.2668,3.5713,8.4064,3.1252,-3.1204,-6.745,-3.7306,-2.3702,-0.9898,0.0163,0.5967,0.4534,-0.294,1.2674,4.6559,-0.0828,-0.5668,4.9094,1.7559,-0.3519,2.0204,0.3132,0.3361,4.6733,10.8503,-1.3914,3.091,12.1232,1.3575,5.0663,1.9036,4.8058,-0.9928,-3.7174,-1.8808,-0.3534,-0.0421,-0.1085,1.0194,0.7531,-0.2371,0.8514,-4.8185,-1.0362,-1.4196,-2.6544,-14.1708,5.9352,0.0679,-5.2114,1.5402,-2.5814,3.4474,1.083,5.7642,1.7568,4.9629,-1.9253,-1.0242,3.6563,0.9042,-2.7404,-2.426,-1.0007,-0.1895,-0.1417,0.5545,0.8789,-1.6416,-1.0927,-8.3657,2.0442,14.4818,4.1292,-4.2911,0.7536,1.4789,6.2023,-1.0835,1.4508,-0.774,8.5921,3.7041,-2.7854,5.1551,3.4521,6.1562,-0.0438,-1.0452,-2.9573,-6.3216,-3.8532,-0.2375,-0.096,0.1213,0.8336,-0.0446,1.1886,-7.856,-6.2261,7.2853,-1.1147,3.7696,3.923,-0.4493,5.4017,5.2589,-0.55,4.1884,-4.8274,-3.7601,7.4353,-2.3982,-4.8859,1.2998,-0.8233,-9.4364,-15.9304,-3.0011,-2.6591,-0.7894,0.0448,-0.0187,0.3074,3.1114,4.081,-9.0502,-13.7859,-13.1418,-9.8153,-11.0052,-6.8154,-7.3974,-12.3334,-1.8099,2.0635,2.4182,-1.58,-2.7574,4.1253,-6.2232,1.393,-1.7347,-7.6164,-15.1982,-11.7897,-1.3801,-0.016,0.1088,-0.1853,0.0245,0.2151,3.9119,0.5927,-11.8749,-18.0496,-27.9631,-28.6406,-20.3381,-22.7153,-14.3859,-13.8779,-5.4504,-5.1076,-3.8103,-3.6553,-4.679,-2.8811,-1.0621,1.2847,-2.6413,-9.8847,-12.9256,-9.1807,-2.6634,-0.1532,0.0917,-0.0643,0.1986,0.3044,2.2062,-3.9278,-7.8334,-1.4019,-6.2747,-12.2685,-8.7146,-13.4308,-8.6622,-10.4342,-12.9858,-1.8235,-6.4888,-3.1634,-2.4467,-5.9299,-3.6261,-8.6239,-0.3639,-9.7087,-10.8119,-6.4789,-3.8679,0.3084,0.065,0.0537,0.1591,0.5717,-0.9295,-6.8701,-6.2593,4.6656,4.375,2.9579,5.8966,3.1083,0.4152,-0.7201,-4.2768,-2.5252,-2.9411,-0.1407,-8.3924,-7.9905,-2.6175,2.9449,-7.5171,-7.9043,-5.5974,-3.0857,-3.3165,-0.064,0.1628,-0.0071,-0.1906,0.2092,0.1043,-0.0186,0.381,-1.9196,0.1216,3.6717,-1.1125,1.6284,-1.6183,-2.6798,-4.0905,-3.5707,-7.4416,-2.0173,-0.5084,-4.0677,-5.3905,-7.2263,-10.22,-5.7113,-5.0539,-1.865,-1.4772,0.0904,-0.0274,0.0804,0.0048,-0.2208,0.8387,3.5718,6.5625,6.3077,4.0146,-0.3366,-8.5868,-0.0286,-9.4662,-5.9448,0.0403,1.353,-7.5025,0.3812,-10.1301,-7.5164,-10.7801,-4.6056,-7.261,-3.3884,-3.2308,-0.1391,-0.1498,-0.0207,0.0082,0.1232,0.117,-0.2484,1.3986,2.0367,5.8489,0.2735,6.2904,3.1935,2.0446,-1.7314,6.6245,-2.8014,-0.1843,-0.8876,-9.9898,-0.2573,-0.4936,-6.6449,-6.7026,-2.6343,3.0881,-1.0724,-3.2532,-2.628,-1.0959,-0.2281,0.0112,0.1429,-0.0816,0.0349,-0.1858,1.9911,9.2214,5.0692,0.0314,1.1528,4.6167,3.5342,-0.7393,-4.1329,-3.2318,7.1573,-0.5996,-0.8659,7.1896,9.2173,0.0571,6.5838,9.8311,2.5759,-2.2211,-1.5659,0.0527,-0.2175,0.1258,0.1739,0.1829,0.189,-0.1673,0.1698,4.2651,2.7337,1.1936,3.4614,4.4222,3.0867,1.5204,4.0735,-3.7983,7.2739,-2.1739,-3.6792,4.9716,-0.5515,-3.6567,2.2341,3.201,1.4247,-0.0619,0.1109,-0.114,-0.0696,-0.1917,0.1281,0.1461,-0.1591,0.1071,-0.0479,-0.0265,-0.1765,0.1418,0.0178,0.1672,-0.4103,-0.7424,-0.6776,-0.2429,0.69,0.669,-0.1852,0.0281,0.3351,0.5027,1.5504,1.3102,2.0345,0.3431,0.1083,-0.1509,-0.1584,-0.0027],[0.1034,0.1611,0.1938,-0.0475,0.0207,-0.091,-0.0429,-0.014,-0.1577,0.1878,-0.119,-0.1948,0.0041,0.1798,0.0927,0.1225,-0.1503,0.1394,0.0746,0.0298,0.0477,0.0474,0.0792,0.0694,0.0302,0.0586,0.0874,-0.0937,-0.1595,-0.1283,-0.088,-0.043,-0.1692,0.0106,-1.1182,-1.8487,-0.2163,-0.6335,-0.2743,-1.3323,-0.8893,-0.5554,-0.2998,-0.0219,0.0971,0.0802,-0.0681,-0.4139,-0.221,-0.3477,-0.1135,0.0721,0.1223,0.1381,-0.0711,-0.0846,-0.187,0.1022,0.0676,-0.1975,-0.1023,0.0898,-0.7315,-3.0649,-1.2471,0.7186,-0.6958,-2.3566,-1.7688,-2.6239,-3.7578,-3.1452,-1.2263,-0.2263,-1.7625,3.0508,1.0671,-1.2515,-0.7244,-0.2478,1.5718,0.9671,-0.1871,0.0647,-0.0684,0.1699,0.1164,-0.1829,-0.0657,-0.2185,-0.5966,-3.2692,-3.2808,-2.471,-1.557,-1.8208,-0.9177,-0.2338,-2.3428,0.4385,1.3891,-5.5934,-0.8276,-2.5671,-4.7581,-3.2244,0.2746,-0.1936,0.8991,1.1626,0.1136,-0.1671,0.0402,0.0949,-0.1921,-0.1243,-0.1111,-0.4774,1.0907,-3.0497,-1.6443,-3.0629,-1.1933,-4.1943,2.838,-1.4197,5.417,-4.623,-3.8269,-2.0879,1.9559,4.5879,-9.3622,-4.4157,-7.2361,-5.6991,5.3756,4.566,0.1134,-0.079,-0.0671,-0.1668,0.1155,0.1351,-1.2393,-1.0939,1.1003,-0.6777,0.3269,1.5661,-0.5039,1.7342,0.5632,-2.7128,-7.1063,3.2676,-3.6994,2.8741,0.4923,-3.3771,-3.6378,2.9352,5.2205,0.35,3.2227,6.2926,1.1621,-0.1124,0.0228,0.1936,-0.0755,-2.1818,-3.2107,-0.9292,-0.5082,-1.054,2.4929,6.0321,1.5935,1.0847,-1.6816,-2.3429,-1.3425,-1.04,-2.7495,2.0947,2.6286,6.896,10.6367,1.3881,2.7944,2.7715,7.2203,5.8994,1.0919,-0.0557,0.1154,-1.172,0.1993,-4.1122,-2.9721,1.3732,-1.3362,-4.5027,8.3167,6.1497,8.9986,2.1652,0.7355,-6.2131,1.5662,6.6488,3.8724,8.665,19.2535,9.2546,4.4832,5.6369,8.3082,7.4445,11.5354,4.4684,-1.4774,-0.1168,-0.1283,-0.361,-0.0716,-7.1038,-2.8506,4.9246,5.2676,0.499,13.3275,5.77,-2.3796,13.7784,7.8567,4.1346,-3.2084,12.8979,5.1239,1.4334,5.6436,2.8485,-0.143,5.0778,10.0336,3.3604,5.8619,4.6021,0.9889,-0.0477,0.1989,-0.0947,-0.0302,-6.4415,-3.2173,-3.1971,-5.0715,-1.3058,4.8528,0.7491,-5.8494,3.7504,-1.5752,0.5257,-14.3441,-11.8423,-1.8135,2.0962,6.2344,4.1252,6.5402,2.9956,-2.8486,-4.1193,2.3234,7.8807,3.2836,0.032,-0.1872,-0.0929,-0.2768,-0.2178,-0.7938,-4.8624,-2.1006,0.4531,-1.4512,8.4884,4.5049,0.1355,0.8096,-12.1652,-6.3929,-11.3833,-1.4437,3.577,-2.1233,-0.8344,-3.1909,-3.8364,-10.9449,-0.3489,2.7356,6.8767,2.9177,0.2573,0.075,-0.1133,-0.7101,-0.1056,0.6227,-4.4183,2.9027,-3.178,4.1278,3.3994,-5.2015,-3.1817,-11.6124,-3.4062,-8.5703,-4.1367,2.6601,8.2036,4.1562,-7.2525,6.1996,-4.9808,2.498,-0.7832,7.451,8.8017,4.6589,0.3217,0.1507,-0.3645,-0.5828,-0.2044,1.3524,0.4762,1.8259,-4.9347,-5.5938,2.1899,3.7112,7.6953,-6.6069,1.1033,10.7267,2.6305,-3.6659,-0.1553,-2.4723,6.2235,2.3971,3.371,-4.0994,-7.7086,4.6364,6.4585,-0.1006,-0.0459,0.0001,0.1434,0.0316,-0.7435,0.5456,-1.9566,-1.1702,-2.4646,-2.7934,-6.7095,-10.4215,-4.0167,-0.5496,8.0592,8.2387,-1.5208,7.7334,9.9851,0.8584,7.3799,3.5138,-1.3758,-2.0601,-9.2045,-4.4901,3.4933,-0.3095,-0.2472,0.0223,-0.1063,0.0401,-1.0835,1.7914,-5.1708,-4.9894,0.3003,0.927,1.3701,-1.1562,3.4754,3.1312,6.3164,-2.0019,0.5222,8.6559,1.3396,-6.8937,5.3051,-1.1987,0.9276,-5.5841,-12.3211,-2.8878,5.9778,0.4454,-0.092,-0.0301,0.195,0.0622,0.0607,-0.3651,-0.2322,-5.1691,-0.1406,0.861,-2.8634,-1.5603,7.3323,7.3013,11.4586,-0.0557,8.2355,2.0184,-3.1294,6.1398,1.927,-6.509,-0.8511,-2.99,-7.6726,-5.6427,0.478,0.1305,0.1418,0.081,0.0582,-0.09,1.4278,-2.9083,-0.0303,3.7267,-2.5814,-3.138,-0.3515,-2.6112,-0.9089,10.7945,-1.6181,5.5087,7.8423,5.2473,-1.2503,1.5427,-14.0791,-6.5882,-2.1027,-3.3997,-5.579,-4.582,3.3984,1.081,0.3095,-0.0742,-0.0692,-0.4246,0.3079,0.0462,-1.5142,1.2116,-2.1053,-2.7634,-2.4101,-12.5653,-6.0701,13.7704,3.0155,-4.3814,4.4647,-0.7361,-4.885,-0.8204,-0.8259,-0.3319,4.8446,1.0788,-2.7803,3.4092,2.5637,0.9704,0.2282,0.0633,-0.1294,-0.7909,1.6493,0.6975,-2.8386,-1.81,-2.0068,-11.4265,-0.8392,1.705,-5.8579,-2.3095,2.9179,-0.8674,-6.5808,1.528,2.0416,-4.5521,1.9764,-0.6838,-1.0193,1.2502,4.4805,-0.5499,0.3449,-0.455,-0.1527,-0.0734,-0.1884,-0.4004,1.8858,-1.4961,-4.2778,-5.3722,4.8526,1.539,-3.0557,1.8746,-3.6884,-10.1665,-6.8613,-8.6983,0.707,2.6277,5.1914,3.7614,-4.9506,-7.4511,0.3314,2.6662,8.0906,0.1279,2.6539,0.2699,-0.2019,-0.1737,0.0298,-0.1135,1.4736,-0.0604,-4.5529,-3.1481,5.3626,5.1417,-1.3783,-2.796,0.2665,-5.1933,-11.2407,-8.4722,0.2986,-6.3224,0.7769,0.8345,-1.9284,0.3467,6.9207,2.574,0.6876,-3.1211,0.552,0.2953,0.0128,0.1296,-0.0325,-0.2401,2.294,2.0396,1.8879,3.9435,2.7877,-2.8623,0.5938,-5.9971,-1.0291,-5.0552,-1.5851,-2.8875,-8.3973,-5.9155,-0.6681,-6.6588,3.9866,3.5617,7.4707,4.1989,6.9656,1.5497,-0.0814,-0.1286,0.0814,0.1288,0.1295,-0.2043,1.0676,2.3925,-2.2575,0.7762,2.9093,3.083,-2.4123,4.1955,0.3867,-2.6279,1.7394,-2.5262,-5.3653,-6.3812,2.0324,-6.2407,-3.4687,2.9653,2.6835,7.5084,5.7234,3.0521,0.026,0.1832,-0.0377,-0.1452,-0.1109,-0.1159,0.5789,2.05,-1.2756,-1.4256,-1.6655,-3.0436,-2.4326,3.7704,-0.9579,-0.0909,3.4433,-1.775,1.5849,2.2916,-3.1594,1.8098,3.1384,1.5816,1.5699,4.3901,4.8074,0.8783,0.1408,-0.1784,-0.0568,-0.082,0.1799,-0.0216,0.0706,0.4637,-1.2019,0.8713,-0.3803,-3.7996,-9.0499,-0.401,8.4921,-3.2023,-4.5727,-6.0691,2.4658,7.3654,3.0862,9.5633,4.207,4.0992,-1.6485,0.0417,1.8842,0.5564,-0.0532,0.0209,-0.1155,0.0254,0.0391,-0.0086,0.1209,0.0451,-0.4546,-2.0421,-2.1015,2.0456,1.026,4.2318,3.908,8.6038,1.7857,2.0088,2.9302,2.7079,1.9592,3.767,2.3379,2.6473,-1.9607,-2.3767,-0.3016,0.0129,-0.1013,-0.043,0.1826,-0.084,-0.198,0.0509,0.1448,0.3988,-0.4588,-0.9054,0.3992,0.8662,3.5653,5.4672,1.0433,-1.6753,-0.5825,4.1915,8.0558,1.5028,-1.6115,2.7784,-2.4754,-0.3338,-1.28,-0.6378,-0.1524,-0.054,0.1692,0.1999,0.1679,-0.1786,0.0022,0.0635,0.1495,-0.184,0.0604,-0.1759,-0.2192,-0.1892,1.6906,4.4463,1.5862,2.723,0.2844,0.0433,1.8396,1.0084,0.1668,-0.1803,-0.4663,-0.1576,-0.7998,-0.7658,0.058,0.0038,-0.0625,-0.0316,0.1544],[0.0387,0.1695,-0.1762,-0.1748,0.154,0.1729,0.138,0.0642,-0.1712,-0.1584,-0.1935,-0.1146,-0.0012,0.3561,-0.1692,-0.1097,0.158,-0.0834,-0.0392,0.0228,-0.0955,-0.0483,-0.1543,0.1202,0.1993,-0.1187,-0.0661,-0.1949,-0.0931,0.1393,0.0199,-0.0881,-0.1969,-0.0894,0.1505,0.0699,0.3196,0.3123,0.691,0.3943,0.5012,0.3446,-0.0116,0.2584,1.0161,0.1065,0.1202,0.3468,0.288,0.0235,-0.0228,0.1975,0.1642,0.1927,-0.0167,0.1803,-0.1573,0.1378,0.111,0.0771,-0.1463,-0.0612,0.0944,0.3987,0.5248,-0.0185,-0.9753,-0.1396,1.1988,1.2238,2.6523,2.7034,0.1557,0.0042,1.5626,1.9628,1.6214,3.1513,0.7512,0.6873,0.5406,-0.1632,0.0902,-0.0926,0.0391,0.0392,-0.0199,0.1847,0.0562,0.0278,1.3301,2.156,2.6314,1.8184,-1.4014,-3.5131,2.3327,6.0685,6.7019,-1.898,0.2111,6.884,4.1814,1.1044,5.6722,5.5374,3.1215,1.4937,1.0428,0.0537,0.0081,-0.1723,0.0937,-0.1298,0.02,0.165,0.2594,2.827,3.8359,2.9371,2.1531,3.6484,-0.095,0.0197,7.9824,2.9021,3.5962,4.169,3.1104,3.4777,1.7095,-2.3041,0.3461,-3.2633,-4.8482,-2.4648,-1.7564,0.5989,1.3254,0.4182,-0.1096,0.084,0.1188,0.7307,0.748,0.3208,1.3723,3.7428,2.2149,2.9374,-4.1454,1.1808,7.4412,4.3587,2.6719,-1.4729,6.1979,7.6577,11.4688,5.2326,0.8361,-2.4233,-6.0738,-4.7753,-4.7541,-0.6186,1.0122,-0.0164,-0.0669,0.0331,0.2761,2.9675,2.4741,-0.3694,0.7992,2.3063,1.6539,-0.2947,7.4756,8.1655,-6.7324,6.7351,-4.022,-0.8677,2.4402,-6.0983,-2.128,0.7647,8.0025,4.3501,-1.6086,1.4845,-1.974,-2.4321,0.5407,-0.0263,0.053,-0.1191,0.2758,1.3019,4.2234,4.4962,4.0492,2.9029,0.9925,-2.8078,-3.348,-0.3004,-4.8529,-2.9581,2.5642,2.3792,-1.7135,-2.2058,5.5685,3.5978,0.3317,-3.5982,2.5382,0.2813,-0.6529,1.7314,-0.2078,0.1493,-0.1374,0.0552,0.8363,3.8816,5.9555,5.6251,8.675,4.4804,1.1097,-0.1242,-2.0322,6.4165,4.3705,-1.2688,-1.663,-2.6676,5.0903,0.001,-1.9199,2.0283,0.4026,0.4183,6.4172,-4.4319,0.5371,1.3208,-0.3609,-0.0013,-0.0166,0.0897,1.7223,4.5622,5.1428,3.9694,8.904,2.3327,-2.3944,3.8443,-0.484,0.2311,-1.4291,-4.8935,0.3893,2.1005,-3.5157,0.1005,-0.031,0.4901,0.0317,3.1584,-1.9808,1.616,2.9602,4.9847,-1.146,0.0142,0.1246,0.0516,1.555,1.2759,3.523,4.3836,2.153,2.4747,1.6356,-5.4398,-0.3267,-1.4697,-4.6046,2.873,5.4106,-2.1233,-1.3795,7.0198,-0.0342,-2.9585,1.1915,5.8547,-0.7862,0.3212,3.3301,0.8979,0.093,0.0752,-0.0099,-0.1471,0.4162,1.5024,2.8573,2.6612,1.9089,-2.1871,2.5084,-6.8282,0.3711,-2.4876,1.6692,3.328,2.1018,-4.6738,-2.5692,-10.841,-1.0938,2.0831,-4.9675,4.8168,-4.3811,6.1775,11.2928,-0.0274,0.7663,0.2432,0.0275,-0.0497,0.1299,1.8675,-2.3159,8.1837,2.8384,-7.3642,0.2628,-3.1084,-0.4538,-13.429,-3.6614,0.2263,11.0702,-6.6511,-6.8967,0.335,-6.8738,-0.6647,-7.1651,6.0339,3.8022,12.3213,11.5775,1.3646,0.9534,0.6609,0.0772,-0.189,0.1589,1.047,-7.0467,0.0891,-3.3991,-12.8066,-1.757,-3.4248,-4.3112,1.2849,-4.884,3.0058,-0.7775,-7.6137,-9.2754,-7.9141,1.4037,0.6639,-2.2194,-4.9319,2.1217,14.4748,7.3849,-0.6207,-1.704,0.0008,0.1635,-0.0805,-0.0136,-0.7403,-7.186,-3.3632,-4.3126,-2.6556,-2.351,-1.6228,-2.8952,4.5679,-4.9224,2.7294,4.3851,0.8404,-8.2207,-6.3188,-8.3202,-2.5222,-5.8276,5.0179,-3.3585,11.0694,5.5218,-2.5877,-0.7304,-0.1237,-0.1082,-0.0971,0.2032,-1.6945,-4.4082,-5.5871,-5.5539,-0.484,-2.7581,-4.6828,-3.3665,0.7975,3.3364,0.8282,2.8976,-6.3496,-7.2463,-3.1178,-7.0581,-1.8296,-4.2415,-1.9955,-2.0243,2.147,1.4217,-1.7543,-0.4481,-0.0038,-0.0638,0.1549,-0.041,-0.7797,-3.3642,-3.262,-12.2627,-4.68,-6.2961,-1.7232,-1.3625,5.1061,4.3734,-4.5614,5.3732,-2.4531,-6.7052,-8.9373,-9.7694,-6.9176,-6.012,1.8442,5.097,4.5513,2.4238,-0.946,-0.2662,-0.1258,-0.1527,-0.0061,0.1167,0.3446,-8.803,-4.8163,-3.1671,2.6106,-0.9616,2.3657,7.7233,4.6087,-2.1075,2.793,-0.2946,-7.7541,-0.2987,-13.1638,-1.3991,-1.4331,3.5399,2.9301,6.4208,4.8774,2.2393,-1.267,-0.1755,-0.0608,-0.0123,-0.1686,0.1956,1.5248,-12.1937,-9.4746,-3.9693,-2.1345,0.8993,-0.3734,1.1336,0.7254,4.2876,1.3482,-8.839,-6.1645,-4.1946,2.8168,3.1414,0.034,6.2746,-0.3574,1.211,2.3893,-2.513,-0.9605,-0.6202,-0.2456,-0.0423,0.0362,0.5172,0.7898,-7.0612,-7.0016,4.4096,-0.1239,-2.4636,1.55,1.5661,-4.2722,0.3125,-0.4987,-5.471,0.1208,4.9728,12.5812,11.4361,8.9354,11.5999,-2.3736,4.9892,1.7336,-0.9915,-0.678,-0.5975,-0.1705,0.0602,0.1002,0.5106,0.6529,-0.3362,2.8394,8.8509,3.6949,5.2315,1.0006,8.8163,10.7973,14.9326,3.3825,8.0632,11.3196,3.6667,4.6392,7,-0.1134,8.6527,2.6607,9.8844,2.4681,-1.9358,0.124,-0.2057,-0.0248,-0.1061,0.0381,0.3629,-0.3793,3.7477,7.3901,13.8611,8.5954,15.0829,5.69,8.1288,8.4026,6.6033,16.7118,15.279,8.5491,1.5691,9.1863,3.0187,2.3195,7.103,0.6862,1.9272,-1.0175,-1.8745,-0.0097,0.0146,0.0955,0.022,0.0445,0.1785,0.718,3.0229,8.7265,12.3435,6.279,0.8313,6.4861,4.1819,0.5652,6.3044,3.595,5.3013,5.2004,3.3965,4.3416,6.5213,2.2682,1.8304,2.393,-3.3166,-1.174,-2.0042,-0.1504,-0.0373,-0.1879,0.1511,-0.0648,-0.039,1.1547,5.7455,5.1045,6.659,4.7023,-2.4954,0.9942,-4.2978,1.6739,-0.4981,2.6631,0.9283,8.0898,4.1733,8.3804,4.4744,0.903,2.0465,-0.0626,-3.0742,-0.6743,-0.9537,-0.1613,0.2022,0.1575,-0.0527,-0.1335,0.1995,0.6185,3.7048,-0.4732,-3.6146,3.4695,5.8237,1.1813,7.3059,7.4528,10.2172,1.2231,5.5801,10.7994,2.424,5.8988,5.3521,2.6561,0.1894,-4.1666,-0.5849,1.2086,0.1496,-0.0277,-0.024,-0.1525,-0.0465,-0.0222,-0.1139,0.2335,1.9105,-2.9874,-1.9385,3.3391,1.8455,8.71,7.8145,2.5073,1.1491,1.3798,1.9881,1.3433,-2.5448,1.5244,0.4321,-0.249,-6.3869,-6.3066,-2.8225,-3.7856,-0.4799,-0.1675,-0.0741,-0.0527,-0.0221,-0.0657,-0.1144,-0.2001,-0.0046,-0.512,-0.5446,-2.068,-4.4529,-3.2954,-2.1169,0.313,-0.7015,1.1394,-1.2334,-5.6915,0.2202,-0.2335,-0.308,1.3475,-1.2036,-1.118,-0.5449,0.3556,0.0717,-0.1251,-0.125,-0.1202,0.0146,0.0904,0.0096,-0.0231,-0.1428,-0.0445,-0.2,-0.0603,-0.1846,-0.1492,-0.0214,0.337,0.5541,0.2982,0.0219,-0.0032,0.0263,0.0158,-0.3552,-0.2741,-0.1733,-0.1108,-0.0762,0.1513,-0.1157,0.0038,0.0885,0.1448],[-0.1565,-0.0025,0.0691,-0.0632,0.1297,0.1519,0.1664,-0.0672,-0.1398,-0.1315,-0.0944,0.0692,0.063,-0.0883,-0.0857,0.1788,-0.0447,-0.0243,0.0392,0.1382,-0.1887,0.1588,0.0247,-0.0493,-0.192,-0.0667,0.0146,-0.1767,0.1832,0.1092,0.1228,0.009,0.0892,0.1072,-0.0199,0.1307,-0.1078,0.1491,-0.5077,-0.7007,0.1577,-0.1146,-0.0616,-0.5948,-0.0446,-0.173,0.0799,0.0284,0.1747,-0.2651,0.0723,-0.1391,-0.015,0.0262,-0.0728,-0.1682,0.0173,-0.1285,0.0643,-0.1875,-0.0956,-0.1614,0.1802,0.1703,0.3849,1.1396,1.6852,0.8853,0.4955,3.0639,1.175,-3.2996,-4.3049,-2.8233,-1.2105,-0.5895,0.0264,-0.554,-0.1463,0.0169,0.0277,-0.0041,-0.0637,0.0037,-0.0848,-0.1393,-0.0689,-0.1772,-0.1968,-0.0344,0,0.3013,1.2025,1.3565,4.3167,11.4517,6.3319,9.9841,6.8218,-1.0452,2.5018,3.0656,-1.7623,-3.5849,-6.9412,-4.2845,-0.7271,0.5806,0.2532,-0.121,-0.1717,0.0955,-0.1087,0.1524,-0.1144,-0.1542,-0.1697,0.1923,0.7141,0.5981,1.6234,3.3393,-1.108,2.4956,2.1505,-0.3445,-2.49,-0.922,-3.3624,-9.5367,-3.2627,-4.0577,-3.518,-7.1366,-7.0469,-4.2888,-1.6787,-0.2147,-0.0131,-0.0533,0.041,-0.0191,-0.0257,-0.1266,1.7262,2.475,3.2493,0.2349,9.2868,5.459,7.4132,2.9752,0.6977,-5.6215,2.9156,-3.028,7.7064,-1.3842,9.0367,3.0193,3.8337,-2.0628,-3.8068,-4.5868,-2.0856,0.1684,0.0695,-0.1206,0.1569,-0.077,1.0569,3.094,4.0386,3.9247,5.3327,5.8693,-2.8212,-5.1331,-8.2746,5.2323,-1.9169,2.0503,0.7474,11.2413,2.1286,-3.9295,-2.5372,-4.8715,-5.4094,1.252,2.9589,0.7307,-0.3948,-1.2673,-0.613,0.0155,-0.0729,-0.1766,0.9004,2.115,0.1085,-2.1339,1.2192,2.6863,5.3314,0.6452,0.6542,4.0168,-6.4888,3.2233,-9.7549,-1.8744,-1.4824,-1.6563,-3.117,-2.6938,-2.7216,0.9495,-2.6395,-3.9309,-4.6359,-3.6744,-1.234,0.1567,-0.1285,0.5529,-0.0849,-0.6606,-3.8541,0.7571,2.525,0.619,2.7305,-0.9082,-2.4744,-1.6094,-1.1402,5.417,-0.5264,-0.6209,-3.3463,-5.3518,-0.018,-1.5545,0.6602,-5.2113,-7.0734,-0.0411,-4.9416,-2.3283,-0.243,0.0335,-0.1855,-0.2038,-1.1568,-0.5637,-5.2105,-2.1921,-3.1363,3.8261,2.6935,-3.6104,-0.5109,-8.8506,-1.3413,-4.8815,-7.9455,9.5813,2.5972,2.9597,2.938,-0.0016,2.3226,-7.0603,-8.9587,-0.7468,-4.771,-3.8259,-0.4414,-0.1447,-0.1191,-0.2217,-0.5675,-1.1115,-5.0947,2.8242,1.1261,-0.3048,-1.5637,4.2771,7.3014,-0.9393,7.4455,-5.0475,-1.4666,-2.5988,-3.3107,4.7984,-4.9503,-2.8259,0.9553,5.1527,-1.6349,-5.9432,-3.6461,-5.6027,-0.0851,0.0483,0.1984,0.1355,0.7073,-0.6843,-3.8587,0.2803,-0.9662,3.1911,-4.4142,-2.9689,-1.6735,-1.1524,-0.7683,-15.2775,-15.0093,-13.4099,-5.5523,-5.3631,-13.5225,-1.4433,-1.1618,-7.0314,1.1768,-3.0333,-1.0072,-0.4155,0.0417,0.1038,-0.1925,-0.0831,0.4856,-1.8897,-3.3962,-2.067,2.4682,-0.8108,-0.4734,-3.0177,-0.2482,-0.0619,-9.6714,-12.542,-13.856,-9.6464,-5.0536,-7.4823,-2.9852,2.2488,3.0271,-3.8942,11.5523,5.4155,5.9095,3.4951,1.135,0.2845,-0.0984,-0.128,-0.2287,-1.8738,-3.7731,2.7278,3.7426,6.9109,10.9339,1.2342,7.156,7.5971,-5.9322,-5.3619,-5.8428,-10.2004,-3.7974,-0.6155,-4.9835,-1.6873,-1.8356,-1.1922,11.215,8.7819,8.3318,3.5897,1.9914,1.273,-0.055,-0.3941,-0.569,-2.0669,-3.2404,0.3754,6.6796,13.1506,13.1848,11.1072,13.0599,9.4631,-3.8358,-8.6778,-6.6983,0.5835,0.5943,-5.2228,-0.0008,0.9484,-1.9156,0.1702,6.5968,7.047,5.3362,3.1228,1.3634,0.0594,-0.1863,-0.7656,0.6401,1.3563,-0.0305,-0.2502,-5.5357,4.0736,9.9568,13.397,15.3883,8.7753,0.0387,0.3361,-4.5371,-2.7256,-0.2717,-2.8785,-4.7372,-1.7693,-9.4673,-0.3053,-1.2217,3.4558,7.062,4.0774,1.9384,0.0721,-0.0566,-0.2452,1.973,3.2617,1.212,-2.1781,-2.4818,7.731,4.0157,-0.2164,14.3308,7.0796,6.2532,4.9727,4.4301,-1.6926,-1.7638,2.2148,1.1341,-1.9958,2.6425,7.6384,2.9305,7.6519,7.6837,6.2013,3.8983,0.1707,0.1415,-0.065,2.5488,3.8161,1.1397,1.6402,1.9725,2.8881,3.1614,2.3097,4.0181,11.2789,9.2166,-6.0933,-0.1116,7.7664,-0.1516,1.0282,-0.0592,-4.9069,-2.8115,4.5766,7.3948,12.2894,12.555,6.2921,1.8343,-0.2195,0.1218,0.0071,0.3864,6.3219,2.9857,-0.4945,1.555,1.8537,2.4331,-2.3418,8.747,5.7019,7.4478,1.8625,-2.5098,1.4905,2.8348,-3.1215,-3.6895,-2.8337,6.7257,8.1808,15.8182,10.9423,6.5461,-0.13,-0.8063,-0.0105,0.1317,-0.5017,-1.1137,5.33,1.0162,1.0073,0.4564,-5.1153,-0.1051,2.3408,-3.0709,2.6789,10.0038,1.7211,2.7641,3.5284,-2.7137,3.9408,-4.9035,4.7192,7.1838,15.9046,10.7497,4.7511,-0.4512,-2.4636,-0.0528,-0.0734,0.0668,-1.4752,-1.215,3.942,4.2471,6.2167,-1.6823,0.9802,2.468,-1.6547,0.1697,4.2161,3.8277,3.3263,-3.2993,5.7777,3.4794,-2.1687,0.7454,0.8069,6.6156,14.8113,7.1184,5.11,1.9411,0.4089,0.0718,-0.1607,-0.0062,0.0996,-1.4593,2.56,3.1621,5.7484,4.9336,3.5509,0.3282,13.1877,1.6624,-5.3331,1.3913,6.7314,-1.566,-0.1276,1.9607,7.8691,13.2284,7.6392,5.7535,7.2308,6.8586,4.5194,2.2517,1.136,1.2055,0.0278,-0.1738,-0.0234,-0.4364,0.5947,3.0811,1.7122,4.0167,-1.2349,2.7967,0.9524,0.6596,5.0445,0.0638,5.3308,1.1255,-7.1735,-3.6071,0.6772,0.1553,1.9638,8.4716,7.8353,5.5698,1.2795,-0.0203,-0.1899,-0.1286,0.0918,0.1743,0.0468,0.2061,0.8201,-2.2414,-1.5902,1.2545,1.8635,-1.2029,2.8172,2.5578,-1.6189,-4.1678,6.8891,3.3417,2.403,5.8014,14.2338,8.3563,9.1993,5.9615,8.4754,2.1201,0.873,0.1078,0.1847,-0.0376,-0.0543,0.0149,-0.0797,-0.8324,-2.19,-2.7527,-5.1742,-13.9549,-5.918,-3.5192,-3.472,0.0192,2.504,-4.1564,-3.0579,-4.0302,-2.2986,-1.2024,-2.1085,-4.015,4.5875,6.8248,5.8626,2.5001,0.6816,0.1867,-0.1393,0.1716,0.0034,0.1828,-0.1945,0.1042,-0.1326,-0.2051,-1.1347,-5.322,-7.6672,-13.2082,-15.2944,-14.6929,-19.7315,-15.6503,-12.2541,-10.3878,-11.9694,-10.3355,-9.6909,-4.6082,-0.4027,0.9241,0.4208,0.1848,0.1015,0.116,0.11,-0.0988,0.1976,-0.0723,0.1602,0.0653,-0.1826,0.1222,0.0582,0.7153,-0.2872,-0.3964,-0.0595,-0.8378,-4.8778,-2.3315,-0.4994,2.4741,0.0186,-4.0563,-1.6564,-0.6398,-0.5117,-0.1072,0.3237,-0.1955,0.1447,0.1709,0.164,-0.1705,-0.1459,0.0941,-0.1078,0.167,-0.1805,0.1852,0.1355,0.0373,0.0161,-0.1977,-0.2624,-0.573,-0.0033,0.2598,-0.0437,1.8714,0.2036,-0.1118,-0.0802,-0.1971,0.1039,0.0907,-0.1202,-0.1822,-0.0222,0.0846,-0.0297,0.0535,-0.099],[0.1755,-0.034,-0.1138,-0.1426,-0.0799,-0.1434,-0.1598,-0.0453,0.0208,0.0759,-0.0638,0.0011,0.0513,0.0725,0.1396,0.0335,0.0583,-0.0895,0.0488,0.144,0.1838,-0.0187,-0.064,0.059,0.125,0.1852,-0.0213,-0.0451,0.1448,0.162,0.0225,0.0963,0.0781,0.1044,0.1155,0.0576,0.0723,0.1117,0.4183,-0.0655,0.0288,0.0797,-0.0516,-0.2529,0.0198,0.1287,-0.1527,-0.1441,-0.1104,0.1387,0.0892,0.0308,-0.0911,-0.1661,-0.1438,0.1624,-0.1335,-0.1447,0.1874,-0.0617,0.1015,-0.1524,-0.0817,-0.1953,-0.1469,0.1251,0.3015,-1.6405,-0.5586,2.804,-0.3638,-0.7057,0.1389,0.9255,1.5921,1.4606,0.4617,0.9157,0.1663,0.0133,0.0622,0.0905,-0.0736,-0.0066,-0.0586,-0.0535,0.0639,0.041,0.1457,1.2051,1.1769,0.9418,-0.6856,1.8195,5.8823,2.9952,2.6553,3.9011,3.6918,1.6248,4.2045,5.2449,3.1196,0.6969,4.0697,5.9196,2.3659,0.149,0.0426,0.0331,-0.1427,-0.0903,-0.0771,0.0801,-0.1972,0.0726,-0.0401,1.1473,0.222,-0.8659,-2.7505,3.0232,-0.1592,1.398,1.7862,4.233,5.1533,-0.8371,-2.6988,3.4688,5.2292,-0.3421,-0.3783,2.1809,5.4374,0.8764,2.2319,0.2234,0.041,-0.0331,0.1718,-0.1238,0.1568,-0.1022,-0.8406,-0.8367,1.0392,0.5559,-0.9109,1.3371,1.6978,0.5961,0.3851,-4.8413,-2.1134,1.5455,-2.5265,-1.1962,-6.3324,-2.1742,3.741,-1.6697,-2.7204,-0.1835,0.052,0.8262,-0.0092,0.1424,-0.1093,0.1495,-0.2019,-1.9685,-3.3446,-0.2019,2.2065,-3.3417,-4.9183,-4.3712,-1.5737,2.401,0.5987,-1.3742,2.0359,5.1109,1.1765,-0.8993,4.8755,6.3348,6.0319,3.3921,-0.0088,1.496,2.1072,1.5015,-0.0896,-0.0288,-0.0063,0.1286,-1.8741,-4.4073,-3.1851,2.0133,0.0918,3.3443,4.6602,-4.4925,-2.9619,-0.402,4.5696,-10.0429,0.9502,7.5333,0.1698,-4.6503,1.8772,-2.8357,-4.1635,-4.41,-2.019,2.7873,9.0986,3.1204,-0.0653,-0.0832,-0.2703,-0.1675,-0.8109,1.8692,2.7573,2.1849,-5.552,-2.0674,-4.8664,2.9819,-9.0574,0.2542,-0.263,3.5948,2.8468,-1.4853,-4.2355,3.4714,-4.8191,-5.4573,3.594,-5.6286,-1.6154,1.6889,7.7674,1.3625,0.1279,0.1024,-0.1324,-0.2311,1.5086,3.6186,5.3699,-1.0638,-6.3366,-5.1505,3.5344,-2.2556,-0.3546,-2.0011,-3.4578,-2.2266,-2.7381,-3.4352,-7.0366,-1.6795,-1.404,0.2881,-0.012,-3.9597,0.3491,4.7875,1.8586,2.164,-0.087,-0.1694,-0.1985,-0.1341,0.1915,4.6171,3.9107,-1.7333,-0.4904,1.2652,-7.4135,-1.1186,-1.1542,-2.1171,0.7525,0.3931,-0.0857,-3.1783,-6.6069,-1.2364,-4.7407,-1.2461,0.5646,-0.1705,6.591,7.5474,-2.3,-1.0867,0.7929,0.0061,0.0769,-0.2149,-0.1746,1.2312,2.6443,-0.2312,3.9604,-1.4959,4.138,4.4402,1.3703,-6.1162,1.3132,14.7166,14.7757,0.2511,1.3291,1.2426,-7.2705,-1.8392,0.1266,-6.4341,2.8139,1.6142,-0.9435,-0.0263,0.387,-0.0556,-0.0128,0.0901,0.0595,2.0421,0.9539,-1.7974,-1.8183,-3.4401,-2.2114,-11.1446,3.424,1.9362,25.3295,24.6235,11.9933,2.8712,-0.5088,2.1725,6.8306,5.2249,0.894,1.5835,7.8515,3.7048,1.2744,-2.4508,-0.3574,-0.178,0.1327,-0.2065,-0.166,3.9971,3.7973,0.9463,2.4424,5.3574,5.7249,12.8575,17.4375,32.376,26.68,6.6576,-5.9441,-1.0103,3.5604,1.9979,5.6232,4.5944,6.9038,7.3732,4.4639,1.7403,-2.1371,-3.6458,-1.1226,-1.0681,0.1761,0.8085,0.4259,4.6765,3.2875,7.3723,11.9693,13.5658,21.8713,33.6911,32.1546,13.5971,0.7835,0.1113,-0.3934,2.8563,-0.7422,-2.837,-4.8886,-2.997,1.3394,2.3883,0.4228,-0.4938,-4.7657,-3.1915,-0.3205,-0.0164,0.1394,1.3603,1.102,4.8897,6.5279,12.127,17.4135,19.1467,20.0151,14.7163,4.3043,-8.425,-2.8509,-1.1517,-0.7079,-0.4619,-1.2586,0.9291,3.6186,4.4693,-6.7634,-8.5807,0.2125,0.3954,-1.4272,-2.482,-1.3527,-0.1142,-0.1652,0.8019,1.8188,6.4083,12.3481,14.2985,9.9267,3.7529,4.4425,4.397,-5.0031,-1.442,2.1021,-5.2866,-0.4634,-2.8716,0.4959,-5.1945,-5.4544,-7.0188,-1.7481,-5.468,2.6866,-3.2894,-3.5175,-5.5466,-3.6883,0.1268,-0.0983,0.1416,1.5523,6.5497,8.0153,8.9878,2.8894,-2.9413,1.8996,-0.6033,0.6957,3.2698,-2.6389,-3.597,-5.5768,1.5031,-1.8923,-2.865,-6.6753,0.5597,2.4423,2.3644,2.8249,-4.3144,-2.7767,-5.1739,-0.3819,0.2255,0.0091,0.1803,0.219,3.7324,0.4499,5.4626,1.9303,-5.8304,1.5075,-0.837,-0.3255,6.3753,-4.8229,1.0374,-0.1171,-3.2138,-4.4441,0.4249,-1.3143,3.9117,1.5159,-0.1188,4.3301,-2.2673,-5.9698,-2.9566,-0.1761,-0.0491,-0.0363,-0.1295,-2.0665,2.3157,-3.2921,5.8099,-3.7742,-8.3371,2.7,3.5669,0.2068,-3.2271,0.2496,-4.4809,-6.1788,-6.6132,0.9827,1.9102,3.9735,2.2662,-4.3438,-0.6509,0.0381,1.0369,0.4198,-2.2834,-0.0794,-0.0441,0.1823,-0.1027,-1.4382,-1.5805,-5.4652,8.8721,-7.3908,-1.7049,-0.2366,-7.4389,-2.0556,1.8639,0.4326,-7.3995,1.2832,2.8456,1.3842,-0.8242,1.5231,3.6444,6.6031,-0.5896,-3.0121,1.3255,1.7093,-2.7924,-0.1139,0.1777,-0.0465,-0.0397,0.0667,-3.1322,-0.5226,-1.8538,-4.472,4.1864,-1.3049,3.2198,-0.3968,-2.3572,3.6956,-1.4845,2.5902,-6.1209,-4.1464,-3.6143,-1.6391,-4.2841,-0.3143,2.0666,1.6385,-4.3273,-0.7723,-1.444,-0.023,0.0055,0.1933,0.1383,0.1825,-4.505,-3.8348,-4.268,-1.3015,0.2863,-7.2766,-2.9729,1.1246,0.8963,2.6236,2.6316,3.5244,-0.6199,5.8837,-0.8068,-1.2919,-8.8492,-4.9975,1.2843,-1.3502,-2.1606,0.4056,-0.0621,-0.0833,-0.0938,0.0506,-0.0685,-0.0882,-2.3321,-7.4831,-10.6872,-4.5434,-0.4079,4.9679,-0.0916,-2.3048,-1.7332,5.3562,0.6289,-0.3176,-3.4289,-3.2015,3.0339,-0.4033,-4.7528,2.5464,-1.5801,-1.003,-3.9887,-3.0438,0.003,-0.1832,0.0456,0.0761,-0.1974,0.0359,0.422,-3.7152,-4.2692,-0.0465,3.8064,1.9942,-0.6272,5.7974,-4.3349,5.7048,3.4924,1.7841,2.1273,2.5857,-2.3298,5.6353,2.3276,1.0929,-1.9473,1.558,1.1542,-1.2869,-1.3475,-0.0352,0.1625,-0.1234,0.1046,0.0122,0.0934,-1.3235,0.2077,2.0179,-3.4917,-6.8623,-6.7616,-3.2216,-4.2788,-2.2706,-2.3741,-2.3861,-5.3247,-2.4954,1.105,4.1667,5.3231,5.3821,3.1573,1.6431,3.2337,2.3529,-0.1194,-0.115,-0.1361,0.0485,-0.0373,0.0233,-0.1676,0.1763,5.7797,4.3283,-4.5996,-5.1577,2.9349,-2.5871,-1.7978,3.984,3.8774,0.0247,0.7945,7.9407,3.4168,-3.5315,-2.1817,0.731,1.2475,0.5503,0.1107,0.0102,0.0154,0.1937,0.1871,-0.19,-0.01,0.0452,-0.0156,-0.1665,-0.1503,0.0892,0.113,-0.1846,-0.0201,-0.6468,-0.2535,0.134,-0.6922,-1.2168,-0.3633,-0.2642,-0.1332,0.0113,-0.1822,0.3525,0.3573,0.597,-0.158,0.043,0.1552,-0.0718,0.1714],[0.0265,0.0468,-0.0741,-0.155,0.0608,-0.0716,0.0057,0.0371,-0.023,-0.0369,0.1864,0.0239,-0.1471,-0.1223,-0.0961,0.1422,-0.0895,0.0823,-0.0867,0.0165,0.0676,0.0384,-0.002,-0.0694,0.0167,0.0373,-0.1872,-0.0605,-0.0657,-0.08,-0.1252,-0.1651,0.1403,-0.1453,1.6912,3.0285,0.9832,0.1548,0.1531,0.0201,0.3556,-0.0467,-3.8253,0.0088,0.106,0.0267,0.4725,-0.0255,-0.0067,0.192,0.0246,0.0295,0.1585,0.1939,0.1676,0.1613,-0.0613,-0.1327,-0.0041,0.0034,0.0237,0.53,2.9567,5.3516,5.0384,4.256,4.0776,4.9985,7.8039,4.3622,1.1774,-0.3342,1.0674,3.0555,5.0582,2.1978,3.5372,2.476,1.0299,0.8305,0.6334,-0.0694,0.0695,0.1912,0.0232,0.0872,-0.0888,0.1383,-0.0209,1.8969,5.4762,8.8175,7.8122,8.3962,5.522,1.0693,-4.0478,7.9613,11.298,11.3003,5.5994,5.1556,3.1959,-0.4101,12.876,7.887,-0.8252,3.6231,4.6673,0.596,0.7758,0.161,-0.0667,-0.0343,0.1412,0.3155,-0.2887,2.5157,3.0823,4.6653,0.3849,1.7992,2.6906,-1.3957,-0.6122,3.0483,1.5233,4.6715,-4.5946,1.7688,3.4545,-3.3535,2.2406,1.101,-4.7511,-0.2747,0.4863,1.4433,0.2337,0.3348,-0.1839,0.0823,0.1317,-0.049,1.0844,-0.7998,-3.5524,-1.1245,-3.9069,-2.0023,1.801,-1.6742,1.3069,0.7003,-5.5287,3.1904,-1.193,0.1396,-2.3518,-5.3565,-4.1439,-6.3817,-7.8954,-0.6698,-2.22,-1.7879,0.7833,0.3064,-0.0353,0.1284,0.1364,-1.0148,-2.7556,-5.7302,-3.8952,4.6255,-2.3638,0.2396,1.8571,5.4341,-3.6416,0.3705,4.5036,-0.3118,3.4494,-4.6731,7.0422,1.1226,-3.8523,-8.4686,-3.7431,-7.1012,-3.8628,-3.0709,0.2199,0.2684,-0.1846,1.3423,0.1421,-1.3942,-1.9954,-3.2456,0.504,9.1782,-2.2173,2.1507,4.865,2.1397,2.5584,-5.6891,2.841,-1.9252,-1.2498,-1.2645,-2.3845,-4.524,-0.3852,-0.7967,-4.8142,-7.7106,-5.9146,2.1489,0.0078,0.2458,0.1788,-0.0701,-0.1613,-0.2107,5.8826,1.6243,-1.1422,4.1364,4.7052,4.9695,1.1016,9.2451,-4.9796,0.3212,5.0438,3.5371,-0.3726,0.5599,-6.251,-12.4251,1.0993,-0.6159,-3.0924,-12.1502,-10.5171,-1.9301,-1.8285,0.0224,-0.0572,0.0449,0.0932,0.2836,3.8144,2.1335,-4.0771,-4.7036,1.71,-0.9143,7.2214,5.8339,4.8502,4.4296,5.4943,0.8574,-6.1421,-4.6826,-6.448,-1.6623,-4.1916,-6.6453,-2.7494,-7.9186,-12.7498,-6.8508,-1.1303,-0.0129,0.1564,0.1878,0.1528,-0.1301,-1.8396,-3.8847,-9.7999,-6.3148,-11.2357,-4.3432,-4.937,-3.6212,-11.5701,-6.9727,-8.6974,-0.7901,-4.3861,0.5703,-2.2221,-0.9962,-2.0419,0.896,-7.243,-1.9351,-6.1643,-5.0083,-1.946,-0.738,0.1722,0.1122,-0.2894,-2.6683,-5.9687,-11.9867,-12.413,-9.3948,-16.2241,-21.6441,-23.7984,-16.9412,-21.4365,-19.5672,-12.321,1.087,5.6726,-4.844,-0.4896,-2.5364,-4.1496,3.0347,1.1331,2.2702,4.4034,-0.4905,-3.4832,-0.1501,0.0624,0.0027,-0.2928,-3.7028,-7.6819,-8.3645,-12.088,-12.4136,-11.1427,-13.4897,-13.4369,-12.4017,-13.823,2.9442,5.776,-0.5349,-2.7459,-1.7285,-2.792,-1.9637,2.3855,0.6745,3.3706,7.6038,8.1223,1.6712,1.8569,-0.106,-0.1135,0.0342,-0.0124,-1.9943,-7.7149,-7.2669,-7.465,-4.6259,-3.0742,-3.3057,-0.1764,3.5297,7.2767,9.3683,4.5952,-5.8691,-3.8473,-2.8012,-4.9831,2.7305,-2.1381,6.8696,0.0997,7.7871,3.2559,-2.2921,1.862,0.1489,0.0221,-0.1929,-0.0702,-0.3596,-5.7746,-4.2451,5.0956,-2.0975,3.3349,-1.6977,9.0472,11.3818,-3.6023,1.7977,8.7549,-4.6827,5.4953,-2.6953,3.879,3.2543,3.6982,0.3059,6.0263,-0.225,1.1212,-3.1734,3.9064,-0.1956,0.025,-0.0244,-0.1146,0.5633,-2.6644,-0.9026,0.5224,-1.445,6.2207,4.4428,-0.2325,-2.6529,-6.9963,7.7672,6.5554,12.1622,-2.2746,-3.5881,-6.5578,-2.4512,0.4846,2.686,-1.9151,4.3689,0.7145,3.0567,3.001,0.7222,-0.1312,0.1499,0.2668,4.5439,-0.6114,5.1117,6.8049,5.257,5.8511,-3.6164,7.1803,-3.4643,-2.2137,-1.2254,0.3589,-1.5613,-4.0229,0.4059,-3.7066,3.256,0.8351,-1.7968,1.6358,2.0249,5.6333,8.7956,4.6935,1.196,0.1235,0.1137,1.0982,7.0269,1.5632,-2.4729,6.4368,-1.0756,-0.3088,-3.1861,-1.0797,5.585,-0.5694,-0.9002,3.5283,-1.013,0.013,3.8258,-3.8488,0.7432,2.5387,1.2418,-1.7563,-1.3226,8.2087,10.0278,2.1963,0.3433,0.1713,-0.1506,1.5651,7.3809,5.488,-7.0249,-1.9186,9.7438,-3.5952,2.7999,0.5818,-2.2757,9.1022,3.2631,0.3813,4.4021,0.322,8.9429,5.1599,8.2271,-4.8822,-5.5067,0.3156,3.8657,5.0611,8.6868,0.5382,0.3534,-0.1112,0.0928,0.9856,5.5176,9.2763,0.4461,-5.3559,3.4043,-4.6984,2.9291,11.591,9.8665,9.3851,2.7048,0.8701,10.0998,3.3701,8.0825,-2.4851,1.0571,1.042,-3.0074,-1.9248,-1.7625,0.578,3.9595,0.4047,0.1982,0.0139,-0.0638,0.3149,5.1061,9.2175,6.4862,-2.1544,2.7002,8.9946,9.4667,7.4419,1.2613,5.972,1.169,8.4782,0.8155,-5.1585,-4.5473,1.7434,-2.4936,7.2547,-0.8654,1.956,5.4897,3.0356,0.9859,0.2311,-0.041,-0.0379,0.0141,0.0938,1.9314,-1.4762,3.1856,4.8745,2.7561,5.0877,-3.9072,6.3287,4.8064,2.1237,2.3315,2.5886,-0.1777,-1.2653,6.8827,-0.9395,-4.3084,2.6004,4.3353,3.8667,7.1038,4.6855,0.8847,0.2143,0.1225,0.0414,0.0944,-0.0273,2.5719,-0.8728,-2.6319,-0.8351,-7.2926,4.802,5.6872,5.6963,-9.0125,-1.6315,3.1315,-6.0374,-4.0659,-3.2505,-3.7458,0.0527,4.781,3.7853,1.4707,-4.4782,-1.1438,-0.7265,-1.0417,0.0715,-0.183,0.1106,0.075,0.1832,0.6675,3.0025,2.6493,-0.9843,-5.6282,-7.5462,-5.1976,5.2687,-6.4828,-3.8895,-13.0429,-10.2691,-10.0436,-9.6333,-19.4739,-13.0026,-9.4593,-7.5171,-3.9063,-7.2786,-5.5683,-2.9312,-0.654,0.9445,0.1309,0.0141,-0.0679,0.2129,-3.1591,-1.0081,2.6606,2.7267,-1.3275,-6.7648,-8.7676,-4.4429,-11.2573,-0.6593,-2.0062,6.1178,-4.8816,-5.9898,-2.8825,-3.8341,-4.9193,-4.9944,-3.608,-6.7729,-6.3124,-2.134,0.1552,0.0563,0.1518,0.1805,-0.0933,0.0553,0.3236,1.8547,1.2061,5.5084,4.1983,1.0545,0.9806,2.4421,3.4319,8.7851,-0.0739,-0.109,-1.5064,1.0689,5.5505,3.658,-0.5631,0.5972,-1.5979,-1.4697,-2.2495,-0.63,-0.0775,0.0309,-0.0552,0.1497,0.0787,0.1035,-0.134,-0.3425,-0.4388,-0.2267,0.4268,-1.4936,-2.6056,-1.2152,1.0097,-1.1493,1.3882,1.2947,-4.2286,-1.0081,0.8824,0.3993,-0.0092,-0.2553,-0.1711,0.1731,0.0558,0.1691,-0.127,0.1949,-0.1088,-0.1174,0.1645,-0.1955,0.0399,0.0286,-0.1509,-0.0888,0.1656,-0.0587,0.1354,0.54,0.0092,-0.1154,0.1418,-0.0838,-0.1451,0.0134,0.188,0.1592,0.1856,0.1003,0.1249,0.0695,-0.104,0.1607,0.0246,-0.0072,0.0858],[-0.1512,-0.121,-0.0303,0.0297,-0.0849,-0.0667,0.1685,0.144,-0.0298,-0.0733,-0.1732,-0.1351,0.0609,0.1297,0.0943,-0.0555,-0.1262,0.0216,0.0522,0.0279,0.0617,-0.0214,0.1433,-0.1636,-0.0716,0.1075,-0.0807,0.0689,0.0273,0.0768,-0.0484,-0.1683,-0.1089,0.0962,-0.1863,-0.0165,-0.1369,0.1765,-0.161,0.2656,-0.0339,0.0469,-0.4874,-0.4792,-1.0082,-0.0664,-0.0181,-0.1784,-0.1426,0.1611,0.1856,-0.0839,-0.0435,-0.0415,0.0927,0.0459,0.062,-0.0583,0.1101,-0.0013,-0.1476,0.1255,-0.1653,-0.1557,0.0311,-0.1238,-0.4403,-0.4444,-0.1788,-0.007,-2.3859,-3.3065,-0.7038,3.8411,1.6819,1.4856,0.6305,0.3943,0.1148,0.16,0.1977,-0.0867,-0.0413,-0.1729,-0.0033,0.1337,0.0747,-0.0959,-0.0177,-0.0319,0.0262,-1.3703,-2.6692,-4.2493,-4.6944,-4.6748,-8.8394,-7.6971,-5.79,-5.1899,-3.8002,3.2429,4.6619,2.5156,3.6195,5.3459,2.233,0.2802,0.0343,-0.1102,-0.0898,0.1543,0.035,-0.1111,-0.3203,-0.1464,-0.0963,-1.0985,-3.1336,-3.1659,-5.2756,-6.0375,-2.9662,-11.859,-13.4993,-11.6638,-3.4615,-6.3943,5.6063,6.6142,8.316,12.1041,10.0455,8.0538,3.4452,1.9887,0.8474,-0.2301,-0.174,-0.0804,0.002,0.09,-0.1753,-0.0734,-0.1725,-3.1365,-5.5002,-3.484,-3.1155,-4.0642,-6.7141,-8.5524,-6.8647,-13.5884,-11.1062,-10.348,2.302,3.5311,9.3768,3.5919,6.7124,6.6706,8.7956,9.1033,4.4713,1.4504,0.084,-0.0589,0.1717,0.131,-0.0772,0.3142,0.1939,-1.797,-3.5935,-5.8668,-6.735,-5.3958,-4.2511,-7.8554,-8.3729,-14.3194,-17.3334,-18.3828,-17.7177,-3.6073,-14.5711,0.0871,1.7529,1.9939,11.5546,12.2046,8.9169,1.4613,0.0138,-0.15,0.0868,0.1865,0.0818,0.0634,-0.0986,-2.388,-2.8018,-0.2174,-0.7974,0.6666,-4.1569,3.7428,-8.339,-3.4363,-14.0954,-19.373,-18.5436,-10.6294,-13.0309,-3.2995,-3.0222,-5.5533,0.1051,9.1259,11.9657,4.4023,0.5141,-0.0792,-0.1513,0.1091,0.0178,0.4612,1.2366,1.3908,-0.4973,-0.6631,3.8335,4.7477,1.0596,3.0574,0.757,-11.1184,-20.9705,-23.6797,-27.8998,-18.6691,-12.919,-17.0064,-14.5742,-7.7142,-4.5708,0.0091,6.9884,4.7193,0.2961,-0.0033,0.14,-0.0406,0.342,0.0433,2.406,0.2827,-1.5772,2.4498,6.1735,0.191,-2.093,8.4159,5.1104,-12.4325,-16.6875,-23.014,-14.0631,-19.5978,-14.9086,-7.8746,-8.6459,0.0072,-4.11,-3.994,0.8117,0.3512,-0.0659,0.0393,0.0223,0.0823,0.6478,-0.1073,3.882,1.869,-1.5239,2.004,6.0578,8.047,1.1939,8.5061,7.2688,8.7582,-7.0606,-3.318,0.9756,10.2516,-7.252,-5.2356,-2.88,-0.4463,-5.3789,-3.7612,1.8102,-0.1572,-0.2734,-0.1937,-0.0187,0.1661,-0.0343,1.7896,4.069,2.1177,1.6297,0.1539,-5.7444,6.2999,1.7768,4.6933,22.7395,7.8896,-7.9374,11.7735,15.0796,11.1344,-9.0107,-3.7746,-9.3421,-6.7737,-6.1677,-2.0366,-0.2322,-2.0494,-0.3726,-0.2651,0.1022,0.133,-0.042,2.7183,1.4079,-0.953,0.5152,1.5075,1.1528,1.8525,-6.4195,14.9706,20.6683,9.9979,-2.9242,3.4972,-2.5299,3.5372,1.137,-6.3371,-2.867,-6.8128,-2.0455,3.6209,-0.9903,-3.1061,-0.4119,0.0664,0.0964,0.1198,-0.0553,0.0983,-2.6706,2.6623,5.2027,-1.2941,1.9073,7.256,4.0079,3.3935,7.3077,6.7026,0.68,1.7026,-2.6463,1.0115,-3.6853,-1.5217,8.5539,-5.6991,0.3439,3.2566,-0.1725,-2.9993,0.2873,0.0756,0.0538,-0.0258,-0.1062,0.7799,-1.9937,7.6244,3.0958,5.2043,3.379,10.3039,4.9976,13.8872,11.5475,8.4162,-4.8581,-0.891,6.3322,6.4551,-3.8761,-9.1781,3.4643,-2.6016,-0.6304,-1.1211,1.2336,0.6107,-0.5553,-0.1911,0.1626,-0.0826,0.495,2.2389,-1.3908,-1.6158,0.792,2.6912,4.9947,-0.9152,-0.2009,7.6464,7.8975,2.2908,11.3089,-3.2247,6.5087,2.3847,1.6028,3.1973,3.1019,1.7885,2.042,-3.1658,1.0195,0.6036,0.1084,-0.1669,-0.1549,-0.1742,-0.0638,3.8316,0.3645,-1.8755,-1.1039,5.2333,1.4875,-9.4127,-5.1773,-1.3076,6.5896,7.5267,12.4189,-1.6547,-2.5348,14.7468,2.0847,11.9385,6.0137,8.0071,9.0037,3.2058,0.1397,-0.9623,-1.5795,-0.2819,0.1326,-0.0333,0.251,3.2409,3.3664,0.6116,2.6561,0.9519,4.4525,-5.8465,2.1069,2.4374,1.4316,5.8011,3.3252,4.9985,1.9761,0.0375,6.3892,5.9794,7.7828,2.17,6.5094,5.023,-2.2685,-2.6926,-0.9058,0.1169,-0.1953,0.063,0.0315,3.4519,3.0906,2.6803,-0.6956,2.7328,5.9799,-7.889,-6.2788,-4.9177,7.2858,7.7365,11.7159,6.5977,3.383,-3.2472,6.651,-0.2417,2.2345,2.0693,3.0186,-0.8386,-5.0862,-2.7059,-0.3259,-0.2202,0.026,-0.1358,0.0507,3.4956,3.8102,7.3039,-1.1449,-2.2237,5.8246,1.4011,-2.0773,2.6951,-2.093,-1.3917,0.4316,10.5836,5.147,-6.13,2.7754,0.7526,2.2092,8.584,5.6009,-3.3151,-5.0263,-2.185,-0.2779,-0.1882,0.1571,0.1476,0.0954,1.3652,-0.784,0.5724,0.0815,-3.968,-8.5184,-2.5724,4.878,6.5742,-3.993,-6.3823,1.1431,0.8811,-0.593,3.3788,8.6195,0.3677,0.8241,3.9199,-3.9431,-1.8442,-3.8224,-1.7621,-0.0221,0.1598,0.0093,-0.1672,-0.1963,0.4211,0.5989,-2.4123,-2.8381,-4.5835,-2.097,-0.0859,5.2411,3.4859,3.4118,4.9509,1.3483,-0.7745,4.3495,7.9421,1.1285,2.0921,4.0217,3.437,1.7789,0.4288,-2.3071,-0.5012,0.1618,0.1654,0.1211,-0.0926,0.1275,-0.7815,-0.2674,0.3531,-4.291,-1.734,-1.6083,-3.1837,-2.4221,3.1847,-6.0837,2.6441,-8.1448,7.6861,9.6823,10.8172,0.9246,6.1292,4.8331,3.7722,1.7884,0.1548,-1.2424,-0.0677,0.0355,0.1189,-0.1247,-0.1435,-0.1164,-0.5522,0.0584,0.1572,-2.1667,-6.4171,-4.7438,-0.498,8.0374,4.0143,-3.3281,-0.4714,2.0811,0.8305,4.1397,1.62,1.0214,0.4789,6.3407,-2.2605,-6.0795,-2.9415,-0.9246,0.0217,-0.1734,-0.0296,0.1344,-0.1281,0.0316,0.1126,-0.0425,0.8758,-2.1514,-5.5886,-9.8085,-6.9696,-3.0611,-7.1888,-8.485,-4.9158,5.6067,-7.8902,-3.584,-1.7125,1.0744,-3.2432,-3.2575,-9.2899,-5.9637,-1.7891,-0.1226,0.2095,-0.0966,0.042,-0.0013,0.0778,0.1063,0.0645,-0.3813,-2.072,-2.8108,-5.0136,-10.1822,-9.1046,-6.9687,-10.7831,-5.1946,-6.997,-4.9548,-7.9348,-1.0421,0.9058,-2.266,-2.2244,-3.1804,-2.3891,-0.7433,-0.0509,-0.0392,0.0858,0.1596,0.148,-0.1441,-0.1133,0.1969,-0.0086,0.0489,-1.093,-1.8566,-2.6113,-3.2594,-6.5044,-6.4723,-7.478,-9.2808,-11.4089,-11.4518,-5.6076,-2.3131,-1.3433,-2.5189,-1.7714,-1.4194,-1.1117,-0.373,0.0101,-0.0444,0.098,-0.1094,-0.1131,-0.1861,-0.1695,0.1539,-0.1401,0.1306,0.0163,-0.1906,-0.0173,0.1066,-0.3659,-2.7445,-1.9642,-2.0584,-1.0329,-2.4375,-0.0822,-0.5392,-0.6318,-1.2984,-0.2973,-0.0001,-0.0108,-0.0585,0.1478,0.0486,0.1233,0.0519,-0.1053],[-0.0857,-0.1564,-0.0392,-0.0885,0.0398,-0.1742,0.1565,-0.0509,-0.1917,-0.0909,-0.1558,0.1885,0.0682,-0.0354,-0.1323,0.1512,0.1616,0.0247,0.1495,0.0818,-0.0005,0.1999,-0.1059,0.0975,-0.1767,-0.0869,-0.0595,-0.0095,0.0052,-0.0407,0.0465,0.1036,-0.1749,0.0642,-0.0441,0.1549,0.1335,-0.107,-0.005,-0.0004,-0.0604,-0.0494,0.1664,0.0407,0.1018,-0.0811,-0.1875,-0.2069,0.1763,0.0616,-0.0448,-0.0605,-0.1877,-0.0674,0.0992,-0.0663,-0.089,-0.1107,-0.0955,-0.1602,0.0149,0.0725,0.0785,0.1746,0.0815,-0.4235,-1.3031,-0.801,-1.2799,-1.6579,-3.6427,-4.3432,-3.182,-1.2652,-0.6615,0.001,0.1231,-0.2915,-0.3928,-0.1752,-0.1827,0.0976,0.1234,0.0549,0.1126,-0.0348,-0.1824,-0.2169,0.0619,-0.2396,-0.125,-2.2503,-6.2926,-5.2628,-2.9338,0.5944,-5.742,-7.1127,-5.728,-6.5479,-4.0366,1.6613,-4.0542,-3.3839,-1.5804,-0.3752,2.6499,4.1119,3.6752,1.1832,-0.0577,0.0077,0.1382,0.1604,0.0418,-0.0629,-0.1723,-0.6102,0.7358,-2.4827,1.4851,2.7619,-1.8675,-1.1842,-1.2969,-2.9801,2.8167,8.955,-4.4342,1.4755,-7.9092,-5.6512,-9.9604,-1.0446,4.1587,4.9569,5.0684,1.7327,0.746,-0.1431,-0.1245,0.1713,0.0526,-1.1623,-5.0224,-4.9636,-5.6917,-0.6381,-2.6434,-4.5593,-13.5045,-8.2956,-3.7308,3.9895,-4.7371,-6.2132,-3.6084,0.6944,2.7142,2.5204,2.1796,-6.6943,-4.6158,-2.2252,2.0703,1.181,0.3435,0.1245,0.1384,-0.1191,-0.1192,-3.1144,-6.9555,-4.7324,-3.7782,-2.4718,-1.918,0.212,-4.7646,-0.6957,-0.4858,5.3876,8.3695,3.625,5.1248,8.6713,-5.7581,6.9356,4.0676,6.71,0.6156,8.5066,6.4958,3.1064,0.6146,-0.0757,-0.1206,0.0373,-0.0828,-2.9089,-6.3247,-2.5065,-3.9961,-4.3527,-2.9193,0.8116,7.9696,7.9548,11.5156,-1.0285,-3.4163,8.2346,-0.1573,2.978,9.4468,6.1973,0.7363,6.6257,-5.8333,4.1301,14.3541,6.9303,0.6375,0.0526,0.1869,-0.1072,0.1313,-2.2212,-5.6443,-3.573,-0.9965,-1.6648,3.7441,9.9506,5.4291,-4.0173,10.2821,6.1647,5.901,-2.3415,10.193,-1.3883,7.651,-6.9077,1.1586,10.5681,7.0867,7.8949,14.3895,5.4302,0.872,0.1479,0.0727,0.3207,-0.1315,0.4039,-0.5731,1.7256,2.6908,0.864,10.8515,15.1585,18.661,13.7575,7.1443,2.9615,7.1693,-2.7812,-2.6245,-2.0434,3.0352,5.7921,1.6478,4.0849,3.68,13.0334,7.9656,2.4936,0.5305,0.174,-0.087,-0.1196,-0.1374,0.6619,3.2076,9.8708,14.7111,7.3443,12.6049,8.1414,0.6455,2.4915,4.8125,0.2786,2.9842,-0.5657,0.362,-2.2125,0.9343,5.2019,5.7559,12.4728,14.1416,9.8283,4.4164,-0.1471,-0.4561,0.1765,-0.1658,0.3117,0.2271,0.7092,3.026,11.2217,19.5479,11.4398,0.2398,0.697,6.2105,-5.1878,-2.0322,1.8225,-7.0767,-5.5956,-7.1443,10.2056,-1.2896,-0.4216,5.202,6.2043,13.9165,5.4407,5.4589,6.8796,0.2118,-0.1314,-0.1747,0.1896,0.4386,0.6738,6.3246,5.5825,13.3023,2.811,-3.6561,-7.1057,1.0174,-2.6582,-1.2303,2.3479,-1.7402,-6.2229,-7.6006,10.1738,3.4124,13.9698,7.0207,0.6608,5.6043,5.704,-5.3788,1.8717,-0.2268,-0.1991,-0.1936,0.2472,0.148,1.0067,6.9954,1.7615,2.0533,-0.4002,2.144,5.7837,5.1916,7.7462,0.0983,-6.7173,2.7399,5.8285,-1.4658,-8.568,5.983,1.295,2.617,-0.4894,5.8258,0.8175,-6.8617,-2.0619,-2.08,-2.3627,0.0739,0.1899,0.3014,0.7551,-0.5987,-1.1502,3.4577,2.9499,3.36,1.6301,5.9299,0.8105,-0.6096,1.2184,-8.9389,0.9127,-1.3718,8.0311,-0.5032,-0.393,2.5989,1.4278,4.1733,-0.1981,-1.6652,-6.4658,-0.874,-0.064,-0.1956,-0.0224,-0.2602,2.9018,1.7532,-6.0978,-9.5185,-3.037,-0.0598,-1.6405,-10.177,-2.2325,-7.6579,-1.2488,2.438,8.2353,-7.2838,-1.7144,5.1451,-3.892,-1.4437,0.7282,-4.054,-0.9507,3.413,-5.6471,-0.8257,-0.4727,0.0948,-0.0073,-0.6733,2.4851,-2.3281,-8.2501,-12.4908,-10.1502,-12.1043,-15.3496,1.65,-1.4301,-2.1756,-11.0171,-7.3987,-5.5811,0.7097,-9.276,-2.1871,-5.3818,-5.0964,2.0034,-4.8299,-5.6016,-7.6444,-7.9905,-1.1836,-0.535,-0.027,-0.0163,-0.7151,-0.7272,-2.6595,-4.3018,-1.7358,-7.4108,-1.3124,-3.242,-8.0954,0.7617,-7.0043,-1.5052,-8.3568,-4.9476,-0.8034,1.8317,-4.668,-4.2742,-7.5775,-1.4351,-10.3891,-10.4239,-7.0879,-8.788,-0.3335,0.0169,-0.1778,-0.0781,-0.334,-2.4094,-3.0391,-2.0105,5.5785,-3.3693,2.1669,3.4927,0.1041,3.1568,-4.7574,3.4916,-3.047,0.4974,-0.272,6.2047,2.2336,-5.1142,-0.7056,-11.739,-1.4276,-11.6452,-8.5772,-6.5934,-0.7814,-0.1858,-0.0466,-0.0072,0.0462,-1.2005,-5.9841,1.7081,7.9895,1.2799,1.3637,-5.1363,-1.4436,-2.2958,-3.8249,2.0004,-0.6843,-4.0401,-10.0395,-10.9511,-4.26,-5.1559,3.2786,-7.2509,3.906,-5.0958,-6.181,-1.8214,-0.9852,-0.0872,-0.0865,0.2642,-0.075,-1.5473,-1.8893,0.7335,0.0262,-5.3202,2.1678,7.7278,2.9024,-6.6445,-6.9747,5.8387,-1.8431,-1.8371,-4.6619,-3.6268,-6.1503,0.7808,-8.4874,-3.5041,4.1692,-3.2572,-5.2678,-2.3528,-1.3964,-0.1192,-0.1023,0.0867,-0.0299,0.5508,4.3104,-13.0046,1.92,1.1522,0.0811,-5.7178,-4.4042,1.615,-3.8359,-0.3778,3.5351,-1.3991,0.1034,-1.503,-4.0164,-4.872,0.6257,1.5027,-1.141,-3.2232,-0.5887,-1.5505,-0.2954,0.0116,0.0511,-0.0651,-0.5572,0.1802,1.5826,-7.2853,-4.9267,0.5228,-1.9003,0.9784,-0.5973,6.4243,3.057,2.4835,7.2378,-10.0673,-1.9061,-6.9367,-2.133,-3.3318,-2.3387,-1.6756,-0.4929,-3.1497,-0.8238,2.182,-0.1103,-0.1485,-0.1322,-0.0077,-0.2658,-1.1816,-1.9983,1.7984,0.498,-2.1366,-1.1064,0.5636,-0.66,10.1242,-1.2755,-0.5294,4.6171,1.7599,5.7617,5.5712,-2.2929,4.7279,-4.7574,-4.9203,0.0826,-2.2655,-0.2046,0.8511,-0.6028,-0.1497,0.1827,0.0042,-0.0865,-0.4592,-1.4907,-3.5381,-3.1613,-6.7378,-3.728,-4.0463,-1.6742,-8.1811,2.3894,-0.5233,2.0982,1.2729,4.0171,1.9942,3.0198,4.9943,1.1451,-1.4668,6.1263,2.1185,-0.3122,-0.2753,0.0622,0.0443,-0.1146,-0.1694,-0.2127,0.033,-0.042,0.57,1.7661,3.1384,3.1141,6.8058,6.8082,8.8666,8.5644,4.2454,6.8413,9.5716,3.0374,8.6279,14.9702,16.08,7.4286,2.0003,2.3229,-0.3953,0.0991,-0.0641,-0.0073,-0.1173,-0.1162,-0.1126,-0.1426,0.1145,0.1868,0.0502,0.1,0.5301,0.388,0.4597,1.1034,1.6356,8.5554,8.9023,7.5835,4.7811,6.6185,2.1426,2.8366,1.1596,1.345,1.9604,0.9308,-0.0523,0.1141,-0.0803,0.1759,0.0216,0.1956,0.1496,0.0831,0.181,0.1355,0.1689,0.1275,0.1026,0.1105,-0.1573,-0.047,0.1472,3.2237,2.5451,1.2714,0.0416,-0.1222,0.0684,0.244,0.173,-0.0061,0.1134,-0.1369,0.0241,0.0683,-0.0893,-0.1282,0.1197]],[[6.6072,-5.3955,-2.1951,-13.0554,5.7219,-0.7556,-0.47,1.2444,-7.9182,-0.4798,-8.5686,21.2277,-11.5015,8.0956,1.4241,-7.7489],[7.3434,-3.534,-1.5156,-11.7111,15.8716,0.1069,1.076,19.606,3.4266,5.8921,6.766,1.4947,-4.9025,-4.1277,-4.0724,-0.1476],[2.3979,5.0986,-7.0906,-10.4527,-8.2403,1.808,-5.3274,-3.7535,-4.9809,-5.0264,4.9619,-3.8613,25.4981,-3.912,2.2394,5.3402],[-1.2812,10.1566,-11.1346,-6.7,-6.2282,1.7393,-5.0552,-2.961,-4.1711,-4.3953,8.242,-1.5618,-13.0131,4.3684,11.6734,-1.1024],[3.0122,1.5539,-20.0793,4.0602,7.0659,-0.9255,-18.6628,4.611,0.1401,-8.1876,-8.8392,0.2031,3.0425,-3.8399,18.7297,-7.7097],[0.9535,-12.8034,0.4448,-8.3665,-4.4697,10.3829,-5.0711,0.4998,-7.4527,-6.3025,3.8965,5.9593,-0.0735,-5.7117,-4.3384,9.136],[-2.7123,0.498,-0.187,-5.277,-19.5989,-1.5653,-1.2652,-7.8589,2.0602,1.9902,-12.3905,0.3351,17.2679,-13.1778,1.6659,10.9874],[2.4301,0.4313,0.0412,-6.7975,8.3787,-2.1151,0.9746,6.3868,4.725,4.0321,-4.543,0.0111,14.9473,-16.9203,1.0422,0.2696],[1.4112,-23.4983,4.6718,16.6058,13.2017,8.9474,-0.5801,-1.8233,8.6234,-3.7601,-2.4941,3.939,-6.8371,-1.129,-6.7737,-3.7524],[4.5541,2.6777,4.4894,13.8275,-4.1064,4.4016,4.0877,-4.872,11.5393,-2.248,0.3994,-10.2921,-4.0693,0.2891,-3.7735,5.3911],[-20.1562,2.0516,-1.246,10.7658,2.1549,1.3102,7.7921,-4.6762,10.0419,-0.0149,6.0372,0.1761,-3.781,-5.3095,2.8988,-4.3015],[20.9899,2.1953,1.1949,-11.4975,-16.4028,-1.1608,-5.9198,-2.2381,10.7561,-5.8311,-0.2819,-3.7695,-19.009,20.1242,2.7599,0.0768],[-0.6951,-0.0447,-2.5323,-2.3575,16.1297,-24.2523,4.7419,-2.3967,0.0205,-9.4501,3.3696,-17.0618,-0.7049,-2.4231,0.6917,-9.4405],[-2.2758,5.19,-1.9882,-1.2372,-7.6273,0.8652,14.6795,-3.6868,-24.9273,9.1722,-1.221,2.9707,-3.6052,0.8025,-1.834,3.7107],[16.6608,-2.5616,4.4996,-1.9615,1.924,-9.8097,-2.1635,1.4598,14.5184,6.3674,-12.3782,-3.1714,1.0397,-5.0641,-1.1037,3.2183],[-1.5927,-8.4576,-1.5286,3.1678,2.3048,7.8894,3.7052,-7.6442,-6.003,-8.6383,1.0329,-0.0326,7.7329,8.6657,2.658,-2.974]],[[-2.9123,-3.3342,3.8064,-3.9768,-3.0334,10.3344,2.2903,-1.2874,9.1418,-7.077,-2.5497,-1.3881,-0.9466,-2.8202,-5.4944,2.0627],[-1.3909,0.0184,-1.0981,-0.6304,-11.7694,-1.8091,-5.5753,-3.7756,-4.4767,-1.096,0.4625,-0.3304,10.8248,-3.1083,-2.2132,-0.5361],[11.0563,-0.1315,-8.3201,-0.1919,-2.823,-3.9143,-0.4526,-8.0571,3.278,-3.5579,-8.2601,-1.9019,-8.9632,2.9948,-6.8146,-2.5993],[-8.667,-0.4413,-2.3335,-2.5845,-5.736,-9.4187,-2.6981,-2.0565,4.65,0.3897,3.0434,-4.526,-10.4608,-2.4617,-4.9447,3.9658],[4.546,0.2718,-0.9537,-9.0698,10.5453,-2.0977,-3.7468,6.7848,-1.1887,-1.6466,2.4793,-5.4963,-0.5794,-1.4585,4.6479,-3.7957],[-2.4857,-13.009,4.5049,4.2053,-3.8838,-7.8909,3.7703,-3.0643,-4.8518,0.1316,-1.7336,-5.4529,-10.3681,4.1168,-10.7755,-5.6196],[4.2725,2.5119,11.1164,2.6344,4.6816,-3.0268,-5.3678,-5.8687,-4.5973,-7.2182,-3.31,3.3091,-0.3493,-5.7323,-3.0301,4.5201],[-5.834,0.5963,1.5757,0.254,-0.6229,2.3364,-2.7342,-5.7454,-0.1957,6.2075,-3.3675,7.8835,-13.585,-0.0298,8.058,-5.6888],[-4.9674,8.3135,2.5134,1.5555,-2.7638,-2.9736,-6.8682,3.7004,-2.8932,1.1634,-1.8461,-6.0032,-9.7396,4.0061,-3.4409,-1.005],[-2.3204,1.2437,-0.4252,-4.9296,-8.7921,1.7224,4.8949,4.0696,1.2136,0.6342,0.4884,-10.4208,-1.2137,-0.3918,3.7591,-3.662]]]}